{"learner":{"attributes":{"scikit_learn":"{\"_estimator_type\": \"classifier\"}"},"feature_names":["login_frequency","session_duration","feature_usage","support_tickets","subscription_age","last_active_days","revenue","plan_type_Basic","plan_type_Pro","plan_type_Enterprise"],"feature_types":["int","int","int","int","int","int","float","int","int","int"],"gradient_booster":{"model":{"cats":{"enc":[],"feature_segments":[],"sorted_idx":[]},"gbtree_model_param":{"num_parallel_tree":"1","num_trees":"100"},"iteration_indptr":[0,1,2,3,4,5,6,7,8,9,10,11,12,13,14,15,16,17,18,19,20,21,22,23,24,25,26,27,28,29,30,31,32,33,34,35,36,37,38,39,40,41,42,43,44,45,46,47,48,49,50,51,52,53,54,55,56,57,58,59,60,61,62,63,64,65,66,67,68,69,70,71,72,73,74,75,76,77,78,79,80,81,82,83,84,85,86,87,88,89,90,91,92,93,94,95,96,97,98,99,100],"tree_info":[0,0,0,0,0,0,0,0,0,0,0,0,0,0,0,0,0,0,0,0,0,0,0,0,0,0,0,0,0,0,0,0,0,0,0,0,0,0,0,0,0,0,0,0,0,0,0,0,0,0,0,0,0,0,0,0,0,0,0,0,0,0,0,0,0,0,0,0,0,0,0,0,0,0,0,0,0,0,0,0,0,0,0,0,0,0,0,0,0,0,0,0,0,0,0,0,0,0,0,0],"trees":[{"base_weights":[2.3605798E-8,-1.1702127E0,9.322034E-1,-1.3316582E-1,-1.6393442E-2,1.1969112E0,-5.7377048E-2,1.5470852E0,-5.7377048E-2,1.9565217E-1,9.0225565E-1,-5.7377048E-2,1.5979382E-1],"categories":[],"categories_nodes":[],"categories_segments":[],"categories_sizes":[],"default_left":[0,0,0,0,0,0,0,0,0,0,0,0,0],"id":0,"left_children":[1,3,5,-1,-1,7,-1,9,-1,-1,11,-1,-1],"loss_changes":[2.3126577E1,1.3088121E0,5.3907394E0,0E0,0E0,7.3113565E0,0E0,5.897465E-1,0E0,0E0,6.3796687E0,0E0,0E0],"parents":[2147483647,0,0,1,1,2,2,5,5,7,7,10,10],"right_children":[2,4,6,-1,-1,8,-1,10,-1,-1,12,-1,-1],"split_conditions":[1.5E1,5E0,1.5E1,-1.3316582E-1,-1.6393442E-2,5.2E1,-5.7377048E-2,5.7E1,-5.7377048E-2,1.9565217E-1,6.5E1,-5.7377048E-2,1.5979382E-1],"split_indices":[5,3,0,0,0,4,0,2,0,0,2,0,0],"split_type":[0,0,0,0,0,0,0,0,0,0,0,0,0],"sum_hessian":[1.92E1,8.400001E0,1.08E1,6.96E0,1.44E0,9.360001E0,1.44E0,7.92E0,1.44E0,3.6000001E0,4.32E0,1.44E0,2.88E0],"tree_param":{"num_deleted":"0","num_feature":"10","num_nodes":"13","size_leaf_vector":"1"}},{"base_weights":[2.6379399E-5,-1.09575E0,8.434468E-1,-1.2501243E0,-1.545802E-2,1.0830132E0,-5.4402392E-2,-3.8942106E-2,-1.3430697E-1,1.3975843E0,-5.4402392E-2,1.759157E-1,8.2107794E-1,-5.4402392E-2,1.4495726E-1],"categories":[],"categories_nodes":[],"categories_segments":[],"categories_sizes":[],"default_left":[0,0,0,0,0,0,0,0,0,0,0,0,0,0,0],"id":1,"left_children":[1,3,5,7,-1,9,-1,-1,-1,11,-1,-1,13,-1,-1],"loss_changes":[1.95148E1,1.1410875E0,4.5551357E0,9.685421E-2,0E0,6.139084E0,0E0,0E0,0E0,4.4970322E-1,0E0,0E0,5.402395E0,0E0,0E0],"parents":[2147483647,0,0,1,1,2,2,3,3,5,5,9,9,12,12],"right_children":[2,4,6,8,-1,10,-1,-1,-1,12,-1,-1,14,-1,-1],"split_conditions":[1.5E1,5E0,1.5E1,7E0,-1.545802E-2,5.2E1,-5.4402392E-2,-3.8942106E-2,-1.3430697E-1,5.7E1,-5.4402392E-2,1.759157E-1,6.5E1,-5.4402392E-2,1.4495726E-1],"split_indices":[5,3,0,4,0,4,0,0,0,2,0,0,2,0,0],"split_type":[0,0,0,0,0,0,0,0,0,0,0,0,0,0,0],"sum_hessian":[1.9115332E1,8.183765E0,1.0931566E1,6.7485714E0,1.4351939E0,9.509116E0,1.4224501E0,1.1635468E0,5.585025E0,8.086666E0,1.4224501E0,3.7090309E0,4.3776355E0,1.4224501E0,2.9551857E0],"tree_param":{"num_deleted":"0","num_feature":"10","num_nodes":"15","size_leaf_vector":"1"}},{"base_weights":[-2.7047724E-3,-1.0345442E0,7.701695E-1,-1.1842269E0,-1.4576507E-2,9.903061E-1,-5.162189E-2,-3.7068807E-2,-1.273085E-1,1.278033E0,-5.162189E-2,1.60607E-1,7.5252306E-1,-5.162189E-2,1.3279931E-1],"categories":[],"categories_nodes":[],"categories_segments":[],"categories_sizes":[],"default_left":[0,0,0,0,0,0,0,0,0,0,0,0,0,0,0],"id":2,"left_children":[1,3,5,7,-1,9,-1,-1,-1,11,-1,-1,13,-1,-1],"loss_changes":[1.666983E1,1.0181341E0,3.8961558E0,7.171345E-2,0E0,5.232522E0,0E0,0E0,0E0,3.679247E-1,0E0,0E0,4.6255617E0,0E0,0E0],"parents":[2147483647,0,0,1,1,2,2,3,3,5,5,9,9,12,12],"right_children":[2,4,6,8,-1,10,-1,-1,-1,12,-1,-1,14,-1,-1],"split_conditions":[1.5E1,5E0,1.5E1,7E0,-1.4576507E-2,5.2E1,-5.162189E-2,-3.7068807E-2,-1.273085E-1,5.7E1,-5.162189E-2,1.60607E-1,6.5E1,-5.162189E-2,1.3279931E-1],"split_indices":[5,3,0,4,0,4,0,0,0,2,0,0,2,0,0],"split_type":[0,0,0,0,0,0,0,0,0,0,0,0,0,0,0],"sum_hessian":[1.8903963E1,7.9506884E0,1.0953274E1,6.52018E0,1.4305084E0,9.549292E0,1.4039817E0,1.1512865E0,5.3688936E0,8.14531E0,1.4039817E0,3.7489233E0,4.396387E0,1.4039817E0,2.9924052E0],"tree_param":{"num_deleted":"0","num_feature":"10","num_nodes":"15","size_leaf_vector":"1"}},{"base_weights":[-5.3894278E-3,-1.0538048E0,6.626148E-1,-1.20795585E-1,-4.5911435E-2,1.2195846E0,1.4890105E-1,2.934645E-2,1.5214863E-1,-5.2712095E-1,7.0994097E-1,6.6491812E-3,-9.631828E-2,1.18093275E-1,1.0595213E-2],"categories":[],"categories_nodes":[],"categories_segments":[],"categories_sizes":[],"default_left":[0,0,0,0,0,0,0,0,0,0,0,0,0,0,0],"id":3,"left_children":[1,3,5,-1,-1,7,9,-1,-1,11,13,-1,-1,-1,-1],"loss_changes":[1.4416103E1,1.796217E-1,3.4172964E0,0E0,0E0,1.2019796E0,3.2879012E0,0E0,0E0,1.1144596E0,1.1903522E0,0E0,0E0,0E0,0E0],"parents":[2147483647,0,0,1,1,2,2,5,5,6,6,9,9,10,10],"right_children":[2,4,6,-1,-1,8,10,-1,-1,12,14,-1,-1,-1,-1],"split_conditions":[1.4E1,3E0,5.7E1,-1.20795585E-1,-4.5911435E-2,4.4E1,7.1E1,2.934645E-2,1.5214863E-1,3.3E1,5.1E1,6.6491812E-3,-9.631828E-2,1.18093275E-1,1.0595213E-2],"split_indices":[5,3,2,0,0,2,2,0,0,4,1,0,0,0,0],"split_type":[0,0,0,0,0,0,0,0,0,0,0,0,0,0,0],"sum_hessian":[1.8587233E1,7.0090957E0,1.15781355E1,4.7473016E0,2.261794E0,4.895917E0,6.682219E0,1.6884488E0,3.207468E0,3.05798E0,3.6242392E0,1.6539578E0,1.4040222E0,1.499614E0,2.1246252E0],"tree_param":{"num_deleted":"0","num_feature":"10","num_nodes":"15","size_leaf_vector":"1"}},{"base_weights":[-2.8407676E-3,-9.3513817E-1,6.6406375E-1,-1.0775934E0,-1.3588592E-2,8.699585E-1,-5.083399E-2,-3.1014038E-2,-1.1685451E-1,1.1323134E0,-4.8993118E-2,1.4031349E-1,6.8322283E-1,-4.595701E-2,1.1876946E-1],"categories":[],"categories_nodes":[],"categories_segments":[],"categories_sizes":[],"default_left":[0,0,0,0,0,0,0,0,0,0,0,0,0,0,0],"id":4,"left_children":[1,3,5,7,-1,9,-1,-1,-1,11,-1,-1,13,-1,-1],"loss_changes":[1.2606587E1,8.1615114E-1,3.296173E0,1.2836266E-1,0E0,4.2743087E0,0E0,0E0,0E0,1.4100266E-1,0E0,0E0,3.6303272E0,0E0,0E0],"parents":[2147483647,0,0,1,1,2,2,3,3,5,5,9,9,12,12],"right_children":[2,4,6,8,-1,10,-1,-1,-1,12,-1,-1,14,-1,-1],"split_conditions":[1.5E1,5E0,1.5E1,7E0,-1.3588592E-2,5.2E1,-5.083399E-2,-3.1014038E-2,-1.1685451E-1,5.7E1,-4.8993118E-2,1.4031349E-1,6.5E1,-4.595701E-2,1.1876946E-1],"split_indices":[5,3,0,4,0,4,0,0,0,2,0,0,2,0,0],"split_type":[0,0,0,0,0,0,0,0,0,0,0,0,0,0,0],"sum_hessian":[1.8277092E1,7.4542437E0,1.0822847E1,6.031044E0,1.4231999E0,9.425529E0,1.3973193E0,1.1062679E0,4.924776E0,8.041485E0,1.3840432E0,3.6911602E0,4.3503246E0,1.3595374E0,2.9907875E0],"tree_param":{"num_deleted":"0","num_feature":"10","num_nodes":"15","size_leaf_vector":"1"}},{"base_weights":[-5.67694E-3,-9.5892245E-1,5.7400787E-1,-1.0415826E0,-2.1642042E-2,1.0711613E0,1.1825821E-1,-2.1581726E-2,-1.1558791E-1,2.3820981E-2,1.3507845E-1,-5.0044745E-1,6.3227856E-1,6.157068E-3,-9.174678E-2,1.0508627E-1,9.447931E-3],"categories":[],"categories_nodes":[],"categories_segments":[],"categories_sizes":[],"default_left":[0,0,0,0,0,0,0,0,0,0,0,0,0,0,0,0,0],"id":5,"left_children":[1,3,5,7,-1,9,11,-1,-1,-1,-1,13,15,-1,-1,-1,-1],"loss_changes":[1.0964725E1,2.3497963E-1,2.670476E0,3.628602E-1,0E0,1.0245357E0,2.7222714E0,0E0,0E0,0E0,0E0,9.918903E-1,9.3035054E-1,0E0,0E0,0E0,0E0],"parents":[2147483647,0,0,1,1,2,2,3,3,5,5,6,6,11,11,12,12],"right_children":[2,4,6,8,-1,10,12,-1,-1,-1,-1,14,16,-1,-1,-1,-1],"split_conditions":[1.4E1,5.2E1,5.7E1,4.7E1,-2.1642042E-2,4.4E1,7.1E1,-2.1581726E-2,-1.1558791E-1,2.3820981E-2,1.3507845E-1,3.3E1,5.1E1,6.157068E-3,-9.174678E-2,1.0508627E-1,9.447931E-3],"split_indices":[5,4,2,1,0,2,2,0,0,0,0,4,1,0,0,0,0],"split_type":[0,0,0,0,0,0,0,0,0,0,0,0,0,0,0,0,0],"sum_hessian":[1.7846607E1,6.5013843E0,1.13452215E1,5.487662E0,1.0137225E0,4.7803073E0,6.5649147E0,1.0183741E0,4.469288E0,1.6668702E0,3.1134372E0,2.9910786E0,3.5738358E0,1.6371067E0,1.3539721E0,1.4731989E0,2.1006372E0],"tree_param":{"num_deleted":"0","num_feature":"10","num_nodes":"17","size_leaf_vector":"1"}},{"base_weights":[-4.112273E-3,-8.5279286E-1,5.8175087E-1,-9.952629E-1,-1.0850082E-2,7.790093E-1,-4.9933966E-2,-2.5957083E-2,-1.0904526E-1,1.0250856E0,-4.6487596E-2,1.259113E-1,6.283089E-1,-4.089089E-2,1.0774958E-1],"categories":[],"categories_nodes":[],"categories_segments":[],"categories_sizes":[],"default_left":[0,0,0,0,0,0,0,0,0,0,0,0,0,0,0],"id":6,"left_children":[1,3,5,7,-1,9,-1,-1,-1,11,-1,-1,13,-1,-1],"loss_changes":[9.68362E0,7.352309E-1,2.8469956E0,1.7578745E-1,0E0,3.5797496E0,0E0,0E0,0E0,2.3780823E-2,0E0,0E0,2.8874657E0,0E0,0E0],"parents":[2147483647,0,0,1,1,2,2,3,3,5,5,9,9,12,12],"right_children":[2,4,6,8,-1,10,-1,-1,-1,12,-1,-1,14,-1,-1],"split_conditions":[1.5E1,5E0,1.5E1,7E0,-1.0850082E-2,5.2E1,-4.9933966E-2,-2.5957083E-2,-1.0904526E-1,5.7E1,-4.6487596E-2,1.259113E-1,6.5E1,-4.089089E-2,1.0774958E-1],"split_indices":[5,3,0,4,0,4,0,0,0,2,0,0,2,0,0],"split_type":[0,0,0,0,0,0,0,0,0,0,0,0,0,0,0],"sum_hessian":[1.74781E1,6.9519286E0,1.0526173E1,5.5519896E0,1.399939E0,9.138214E0,1.3879583E0,1.0630298E0,4.48896E0,7.775831E0,1.3623827E0,3.523966E0,4.251865E0,1.3119981E0,2.939867E0],"tree_param":{"num_deleted":"0","num_feature":"10","num_nodes":"15","size_leaf_vector":"1"}},{"base_weights":[-6.8499534E-3,-8.780996E-1,5.03209E-1,-1.0463563E-1,-3.204866E-2,9.583547E-1,9.2349425E-2,1.9236105E-2,1.2272557E-1,3.891406E-1,-8.2123764E-2,1.013333E-1,-1.8022497E-1,-8.778809E-2,4.5132034E-2],"categories":[],"categories_nodes":[],"categories_segments":[],"categories_sizes":[],"default_left":[0,0,0,0,0,0,0,0,0,0,0,0,0,0,0],"id":7,"left_children":[1,3,5,-1,-1,7,9,-1,-1,11,-1,-1,13,-1,-1],"loss_changes":[8.437994E0,3.2221508E-1,2.1527014E0,0E0,0E0,9.131503E-1,2.3275597E0,0E0,0E0,2.4103022E0,0E0,0E0,2.2145946E0,0E0,0E0],"parents":[2147483647,0,0,1,1,2,2,5,5,6,6,9,9,12,12],"right_children":[2,4,6,-1,-1,8,10,-1,-1,12,-1,-1,14,-1,-1],"split_conditions":[1.4E1,3E0,5.7E1,-1.0463563E-1,-3.204866E-2,4.4E1,1.5E1,1.9236105E-2,1.2272557E-1,3.3E1,-8.2123764E-2,1.013333E-1,7.1E1,-8.778809E-2,4.5132034E-2],"split_indices":[5,3,2,0,0,2,0,0,0,4,0,0,2,0,0],"split_type":[0,0,0,0,0,0,0,0,0,0,0,0,0,0,0],"sum_hessian":[1.6993542E1,6.008554E0,1.0984988E1,3.942449E0,2.066105E0,4.5794086E0,6.4055796E0,1.6355959E0,2.9438128E0,5.2681885E0,1.1373909E0,2.141126E0,3.1270626E0,1.3004397E0,1.8266228E0],"tree_param":{"num_deleted":"0","num_feature":"10","num_nodes":"15","size_leaf_vector":"1"}},{"base_weights":[-7.798033E-3,-7.8104645E-1,5.106709E-1,-1.0823939E-2,-9.429639E-1,6.9229746E-1,-4.6160255E-2,-2.1941809E-2,-1.06127076E-1,9.284877E-1,-4.5026746E-2,1.1508053E-1,5.608624E-1,-3.8051974E-2,9.718218E-2],"categories":[],"categories_nodes":[],"categories_segments":[],"categories_sizes":[],"default_left":[0,0,0,0,0,0,0,0,0,0,0,0,0,0,0],"id":8,"left_children":[1,3,5,-1,7,9,-1,-1,-1,11,-1,-1,13,-1,-1],"loss_changes":[7.4415483E0,7.0913506E-1,2.2833624E0,0E0,2.6980686E-1,3.054689E0,0E0,0E0,0E0,4.2972088E-2,0E0,0E0,2.3524725E0,0E0,0E0],"parents":[2147483647,0,0,1,1,2,2,4,4,5,5,9,9,12,12],"right_children":[2,4,6,-1,8,10,-1,-1,-1,12,-1,-1,14,-1,-1],"split_conditions":[1.5E1,5.8E1,1.5E1,-1.0823939E-2,3.391E1,5.2E1,-4.6160255E-2,-2.1941809E-2,-1.06127076E-1,5.7E1,-4.5026746E-2,1.1508053E-1,6.5E1,-3.8051974E-2,9.718218E-2],"split_indices":[5,2,0,0,6,4,0,0,0,2,0,0,2,0,0],"split_type":[0,0,0,0,0,0,0,0,0,0,0,0,0,0,0],"sum_hessian":[1.656697E1,6.446365E0,1.0120605E1,1.574095E0,4.87227E0,8.770232E0,1.3503728E0,1.0858765E0,3.7863936E0,7.4230995E0,1.3471326E0,3.2981832E0,4.1249166E0,1.2760184E0,2.8488982E0],"tree_param":{"num_deleted":"0","num_feature":"10","num_nodes":"15","size_leaf_vector":"1"}},{"base_weights":[-1.0572793E-2,-8.085992E-1,4.442198E-1,-9.851693E-2,-2.7003502E-2,-4.1579213E-2,6.136896E-1,7.6215506E-1,-3.0962963E-2,9.299346E-1,-9.259746E-3,1.2237932E-1,4.4756405E-2],"categories":[],"categories_nodes":[],"categories_segments":[],"categories_sizes":[],"default_left":[0,0,0,0,0,0,0,0,0,0,0,0,0],"id":9,"left_children":[1,3,5,-1,-1,-1,7,9,-1,11,-1,-1,-1],"loss_changes":[6.561877E0,3.57656E-1,1.9358611E0,0E0,0E0,0E0,1.6119015E0,1.3675861E0,0E0,5.23911E-1,0E0,0E0,0E0],"parents":[2147483647,0,0,1,1,2,2,6,6,7,7,9,9],"right_children":[2,4,6,-1,-1,-1,8,10,-1,12,-1,-1,-1],"split_conditions":[1.4E1,3E0,2E0,-9.851693E-2,-2.7003502E-2,-4.1579213E-2,5.2E1,1.5E1,-3.0962963E-2,3.3E1,-9.259746E-3,1.2237932E-1,4.4756405E-2],"split_indices":[5,3,3,0,0,0,4,0,0,4,0,0,0],"split_type":[0,0,0,0,0,0,0,0,0,0,0,0,0],"sum_hessian":[1.6090267E1,5.5586066E0,1.053166E1,3.561654E0,1.9969524E0,1.4944181E0,9.037242E0,7.9357576E0,1.101484E0,6.560114E0,1.375644E0,3.1214795E0,3.4386342E0],"tree_param":{"num_deleted":"0","num_feature":"10","num_nodes":"13","size_leaf_vector":"1"}},{"base_weights":[-1.2358542E-2,-7.754898E-1,4.1346103E-1,-9.533772E-2,-2.5411505E-2,8.486617E-1,3.4706797E-2,1.3295687E-2,1.1178104E-1,-4.8965093E-1,4.905863E-1,1.8823594E-3,-8.514509E-2,7.407913E-1,-1.4260759E-2,1.8913532E-2,9.479757E-2],"categories":[],"categories_nodes":[],"categories_segments":[],"categories_sizes":[],"default_left":[0,0,0,0,0,0,0,0,0,0,0,0,0,0,0,0,0],"id":10,"left_children":[1,3,5,-1,-1,7,9,-1,-1,11,13,-1,-1,15,-1,-1,-1],"loss_changes":[5.748556E0,3.4482265E-1,1.8452799E0,0E0,0E0,8.626399E-1,1.9431021E0,0E0,0E0,7.175852E-1,7.8850317E-1,0E0,0E0,1.9226027E-1,0E0,0E0,0E0],"parents":[2147483647,0,0,1,1,2,2,5,5,6,6,9,9,10,10,13,13],"right_children":[2,4,6,-1,-1,8,10,-1,-1,12,14,-1,-1,16,-1,-1,-1],"split_conditions":[1.4E1,3E0,5.7E1,-9.533772E-2,-2.5411505E-2,4.4E1,7.1E1,1.3295687E-2,1.1178104E-1,3.3E1,1.8087E2,1.8823594E-3,-8.514509E-2,4.717E1,-1.4260759E-2,1.8913532E-2,9.479757E-2],"split_indices":[5,3,2,0,0,2,2,0,0,4,6,0,0,6,0,0,0],"split_type":[0,0,0,0,0,0,0,0,0,0,0,0,0,0,0,0,0],"sum_hessian":[1.5703546E1,5.330083E0,1.0373463E1,3.3563495E0,1.9737334E0,4.249726E0,6.1237364E0,1.5696886E0,2.680037E0,2.8135176E0,3.310219E0,1.5637674E0,1.24975E0,2.2508667E0,1.0593525E0,1.1368186E0,1.114048E0],"tree_param":{"num_deleted":"0","num_feature":"10","num_nodes":"17","size_leaf_vector":"1"}},{"base_weights":[-1.0388841E-2,-6.867617E-1,4.2584163E-1,-4.994733E-3,-8.552163E-1,5.985108E-1,-4.410126E-2,-1.5680011E-2,-9.821632E-2,8.2162035E-1,-4.2005148E-2,1.03935026E-1,4.7942144E-1,-1.9942833E-2,9.905804E-2],"categories":[],"categories_nodes":[],"categories_segments":[],"categories_sizes":[],"default_left":[0,0,0,0,0,0,0,0,0,0,0,0,0,0,0],"id":11,"left_children":[1,3,5,-1,7,9,-1,-1,-1,11,-1,-1,13,-1,-1],"loss_changes":[5.105797E0,6.844883E-1,1.840743E0,0E0,3.1579828E-1,2.4378576E0,0E0,0E0,0E0,8.975983E-2,0E0,0E0,1.906609E0,0E0,0E0],"parents":[2147483647,0,0,1,1,2,2,4,4,5,5,9,9,12,12],"right_children":[2,4,6,-1,8,10,-1,-1,-1,12,-1,-1,14,-1,-1],"split_conditions":[1.5E1,5.8E1,1.5E1,-4.994733E-3,3.391E1,5.2E1,-4.410126E-2,-1.5680011E-2,-9.821632E-2,5.7E1,-4.2005148E-2,1.03935026E-1,7.1E1,-1.9942833E-2,9.905804E-2],"split_indices":[5,2,0,0,6,4,0,0,0,2,0,0,2,0,0],"split_type":[0,0,0,0,0,0,0,0,0,0,0,0,0,0,0],"sum_hessian":[1.5313414E1,5.7789207E0,9.5344925E0,1.4801116E0,4.298809E0,8.208915E0,1.3255781E0,1.0049725E0,3.2938366E0,6.8925076E0,1.316407E0,2.9672654E0,3.9252422E0,1.9480137E0,1.9772285E0],"tree_param":{"num_deleted":"0","num_feature":"10","num_nodes":"15","size_leaf_vector":"1"}},{"base_weights":[-1.0963533E-2,-7.1692383E-1,3.7313837E-1,-9.0422936E-2,-2.120857E-2,-4.1609105E-2,5.3522444E-1,6.73308E-1,-2.8316392E-2,8.3096176E-1,-8.518274E-3,1.1220264E-1,3.6744356E-2],"categories":[],"categories_nodes":[],"categories_segments":[],"categories_sizes":[],"default_left":[0,0,0,0,0,0,0,0,0,0,0,0,0],"id":12,"left_children":[1,3,5,-1,-1,-1,7,9,-1,11,-1,-1,-1],"loss_changes":[4.568563E0,3.690951E-1,1.6209278E0,0E0,0E0,0E0,1.2648115E0,1.0787251E0,0E0,5.4176855E-1,0E0,0E0,0E0],"parents":[2147483647,0,0,1,1,2,2,6,6,7,7,9,9],"right_children":[2,4,6,-1,-1,-1,8,10,-1,12,-1,-1,-1],"split_conditions":[1.4E1,3E0,2E0,-9.0422936E-2,-2.120857E-2,-4.1609105E-2,5.2E1,1.5E1,-2.8316392E-2,3.3E1,-8.518274E-3,1.1220264E-1,3.6744356E-2],"split_indices":[5,3,3,0,0,0,4,0,0,4,0,0,0],"split_type":[0,0,0,0,0,0,0,0,0,0,0,0,0],"sum_hessian":[1.4861631E1,4.9314237E0,9.930207E0,3.019864E0,1.9115598E0,1.4249146E0,8.505293E0,7.4290867E0,1.0762062E0,6.0715556E0,1.3575311E0,2.8569014E0,3.2146544E0],"tree_param":{"num_deleted":"0","num_feature":"10","num_nodes":"13","size_leaf_vector":"1"}},{"base_weights":[-1.2855028E-2,-6.8843055E-1,3.4818825E-1,-8.7738834E-2,-1.9952975E-2,7.638975E-1,6.133208E-5,8.530847E-3,1.036793E-1,-4.7198677E-1,4.2861676E-1,1.4025236E-3,-8.169397E-2,6.664044E-1,-1.562596E-2,1.4663145E-2,8.735376E-2],"categories":[],"categories_nodes":[],"categories_segments":[],"categories_sizes":[],"default_left":[0,0,0,0,0,0,0,0,0,0,0,0,0,0,0,0,0],"id":13,"left_children":[1,3,5,-1,-1,7,9,-1,-1,11,13,-1,-1,15,-1,-1,-1],"loss_changes":[4.019711E0,3.5460234E-1,1.5577071E0,0E0,0E0,8.2001114E-1,1.5897145E0,0E0,0E0,6.3837934E-1,6.769596E-1,0E0,0E0,2.076267E-1,0E0,0E0,0E0],"parents":[2147483647,0,0,1,1,2,2,5,5,6,6,9,9,10,10,13,13],"right_children":[2,4,6,-1,-1,8,10,-1,-1,12,14,-1,-1,16,-1,-1,-1],"split_conditions":[1.4E1,3E0,5.7E1,-8.7738834E-2,-1.9952975E-2,4.4E1,7.1E1,8.530847E-3,1.036793E-1,3.3E1,1.8087E2,1.4025236E-3,-8.169397E-2,4.717E1,-1.562596E-2,1.4663145E-2,8.735376E-2],"split_indices":[5,3,2,0,0,2,2,0,0,4,6,0,0,6,0,0,0],"split_type":[0,0,0,0,0,0,0,0,0,0,0,0,0,0,0,0,0],"sum_hessian":[1.4497424E1,4.733476E0,9.7639475E0,2.8408768E0,1.8925993E0,3.9057102E0,5.8582373E0,1.4966664E0,2.4090438E0,2.7394385E0,3.1187987E0,1.5354497E0,1.2039888E0,2.1182203E0,1.0005785E0,1.0902623E0,1.0279579E0],"tree_param":{"num_deleted":"0","num_feature":"10","num_nodes":"17","size_leaf_vector":"1"}},{"base_weights":[-1.1310955E-2,-6.6125786E-1,3.301687E-1,-8.519066E-2,-1.8770171E-2,-4.0770195E-2,4.857364E-1,6.196127E-1,-2.7657965E-2,7.7890927E-1,-1.018392E-2,1.06348835E-1,3.3351097E-2],"categories":[],"categories_nodes":[],"categories_segments":[],"categories_sizes":[],"default_left":[0,0,0,0,0,0,0,0,0,0,0,0,0],"id":14,"left_children":[1,3,5,-1,-1,-1,7,9,-1,11,-1,-1,-1],"loss_changes":[3.5777998E0,3.408556E-1,1.4136542E0,0E0,0E0,0E0,1.1105335E0,1.0143902E0,0E0,5.0473595E-1,0E0,0E0,0E0],"parents":[2147483647,0,0,1,1,2,2,6,6,7,7,9,9],"right_children":[2,4,6,-1,-1,-1,8,10,-1,12,-1,-1,-1],"split_conditions":[1.4E1,3E0,2E0,-8.519066E-2,-1.8770171E-2,-4.0770195E-2,5.2E1,1.5E1,-2.7657965E-2,3.3E1,-1.018392E-2,1.06348835E-1,3.3351097E-2],"split_indices":[5,3,3,0,0,0,4,0,0,4,0,0,0],"split_type":[0,0,0,0,0,0,0,0,0,0,0,0,0],"sum_hessian":[1.4136606E1,4.5465646E0,9.590041E0,2.671921E0,1.8746436E0,1.3876354E0,8.202406E0,7.1363354E0,1.0660703E0,5.780385E0,1.3559506E0,2.6801975E0,3.1001873E0],"tree_param":{"num_deleted":"0","num_feature":"10","num_nodes":"13","size_leaf_vector":"1"}},{"base_weights":[-1.335356E-2,-6.352841E-1,3.0831766E-1,-8.2759835E-2,-1.7655987E-2,7.1669704E-1,-2.4948506E-2,6.540959E-3,9.89854E-2,-4.71508E-1,3.9011806E-1,-6.9394783E-4,-7.928235E-2,7.197438E-2,9.6449844E-4],"categories":[],"categories_nodes":[],"categories_segments":[],"categories_sizes":[],"default_left":[0,0,0,0,0,0,0,0,0,0,0,0,0,0,0],"id":15,"left_children":[1,3,5,-1,-1,7,9,-1,-1,11,13,-1,-1,-1,-1],"loss_changes":[3.1558886E0,3.276708E-1,1.4367473E0,0E0,0E0,7.74663E-1,1.4270838E0,0E0,0E0,5.443689E-1,4.9763012E-1,0E0,0E0,0E0,0E0],"parents":[2147483647,0,0,1,1,2,2,5,5,6,6,9,9,10,10],"right_children":[2,4,6,-1,-1,8,10,-1,-1,12,14,-1,-1,-1,-1],"split_conditions":[1.4E1,3E0,5.7E1,-8.2759835E-2,-1.7655987E-2,4.4E1,7.1E1,6.540959E-3,9.89854E-2,3.3E1,5.1E1,-6.9394783E-4,-7.928235E-2,7.197438E-2,9.6449844E-4],"split_indices":[5,3,2,0,0,2,2,0,0,4,1,0,0,0,0],"split_type":[0,0,0,0,0,0,0,0,0,0,0,0,0,0,0],"sum_hessian":[1.3795869E1,4.370616E0,9.425253E0,2.5129597E0,1.8576562E0,3.7183352E0,5.706918E0,1.4649396E0,2.2533956E0,2.6836574E0,3.02326E0,1.5149254E0,1.168732E0,1.1420923E0,1.8811679E0],"tree_param":{"num_deleted":"0","num_feature":"10","num_nodes":"15","size_leaf_vector":"1"}},{"base_weights":[-1.25301685E-2,-5.6216484E-1,3.2430705E-1,3.5535132E-3,-7.447802E-1,4.9140203E-1,-4.2269375E-2,-1.634528E-2,-8.7854676E-2,6.9996977E-1,-3.7383176E-2,9.141984E-2,3.8515323E-1,-1.9722702E-2,8.576413E-2],"categories":[],"categories_nodes":[],"categories_segments":[],"categories_sizes":[],"default_left":[0,0,0,0,0,0,0,0,0,0,0,0,0,0,0],"id":16,"left_children":[1,3,5,-1,7,9,-1,-1,-1,11,-1,-1,13,-1,-1],"loss_changes":[2.857341E0,6.6564906E-1,1.4050895E0,0E0,2.0874858E-1,1.7597926E0,0E0,0E0,0E0,1.2251234E-1,0E0,0E0,1.4287819E0,0E0,0E0],"parents":[2147483647,0,0,1,1,2,2,4,4,5,5,9,9,12,12],"right_children":[2,4,6,-1,8,10,-1,-1,-1,12,-1,-1,14,-1,-1],"split_conditions":[1.5E1,5.8E1,1.5E1,3.5535132E-3,3.553E1,5.2E1,-4.2269375E-2,-1.634528E-2,-8.7854676E-2,5.7E1,-3.7383176E-2,9.141984E-2,7.1E1,-1.9722702E-2,8.576413E-2],"split_indices":[5,2,0,0,6,4,0,0,0,2,0,0,2,0,0],"split_type":[0,0,0,0,0,0,0,0,0,0,0,0,0,0,0],"sum_hessian":[1.34488735E1,4.856052E0,8.592822E0,1.3249387E0,3.5311134E0,7.301689E0,1.2911325E0,1.0761722E0,2.4549413E0,6.0373654E0,1.2643237E0,2.4596782E0,3.5776875E0,1.8634323E0,1.7142552E0],"tree_param":{"num_deleted":"0","num_feature":"10","num_nodes":"15","size_leaf_vector":"1"}},{"base_weights":[-1.3068996E-2,-1.8016432E-1,1.0489005E-1,-8.001808E-1,2.1190709E-1,-1.3939075E-2,-9.2630215E-2,4.125457E-1,-4.7084045E-2,6.294917E-1,-3.5592563E-2,7.821671E-2,2.7358664E-2],"categories":[],"categories_nodes":[],"categories_segments":[],"categories_sizes":[],"default_left":[0,0,0,0,0,0,0,0,0,0,0,0,0],"id":17,"left_children":[1,3,-1,5,7,-1,-1,9,-1,11,-1,-1,-1],"loss_changes":[2.684739E0,3.3311734E0,0E0,3.0822492E-1,1.3939867E0,0E0,0E0,1.4414136E0,0E0,1.1505771E-1,0E0,0E0,0E0],"parents":[2147483647,0,0,1,1,3,3,4,4,7,7,9,9],"right_children":[2,4,-1,6,8,-1,-1,10,-1,12,-1,-1,-1],"split_conditions":[7E0,1.5E1,1.0489005E-1,9E0,1.4E1,-1.3939075E-2,-9.2630215E-2,5.2E1,-4.7084045E-2,3.4E1,-3.5592563E-2,7.821671E-2,2.7358664E-2],"split_indices":[3,5,0,4,0,0,0,4,0,4,0,0,0],"split_type":[0,0,0,0,0,0,0,0,0,0,0,0,0],"sum_hessian":[1.3064597E1,1.2005883E1,1.0587138E0,4.2477083E0,7.758175E0,1.0182071E0,3.2295012E0,6.301974E0,1.456201E0,5.05559E0,1.2463839E0,2.699766E0,2.3558242E0],"tree_param":{"num_deleted":"0","num_feature":"10","num_nodes":"13","size_leaf_vector":"1"}},{"base_weights":[-1.0920516E-2,-1.7387682E-1,1.0009513E-1,-7.721094E-1,1.9728315E-1,-1.3294846E-2,-8.9910716E-2,3.8848993E-1,-4.4787887E-2,5.960542E-1,-3.3895664E-2,8.1335396E-2,2.9062182E-2],"categories":[],"categories_nodes":[],"categories_segments":[],"categories_sizes":[],"default_left":[0,0,0,0,0,0,0,0,0,0,0,0,0],"id":18,"left_children":[1,3,-1,5,7,-1,-1,9,-1,11,-1,-1,-1],"loss_changes":[2.4314945E0,2.9597101E0,0E0,2.8993607E-1,1.2347788E0,0E0,0E0,1.2844577E0,0E0,1.5785193E-1,0E0,0E0,0E0],"parents":[2147483647,0,0,1,1,3,3,4,4,7,7,9,9],"right_children":[2,4,-1,6,8,-1,-1,10,-1,12,-1,-1,-1],"split_conditions":[7E0,1.5E1,1.0009513E-1,9E0,1.4E1,-1.3294846E-2,-8.9910716E-2,5.2E1,-4.4787887E-2,5.7E1,-3.3895664E-2,8.1335396E-2,2.9062182E-2],"split_indices":[3,5,0,4,0,0,0,4,0,2,0,0,0],"split_type":[0,0,0,0,0,0,0,0,0,0,0,0,0],"sum_hessian":[1.2690581E1,1.1643606E1,1.0469748E0,4.0444827E0,7.599124E0,1.0096949E0,3.0347877E0,6.168736E0,1.4303881E0,4.939855E0,1.2288808E0,1.9146901E0,3.025165E0],"tree_param":{"num_deleted":"0","num_feature":"10","num_nodes":"13","size_leaf_vector":"1"}},{"base_weights":[-8.27355E-3,-1.6715032E-1,9.568684E-2,-7.4531555E-1,1.8501282E-1,-1.3129386E-2,-8.806307E-2,3.6762214E-1,-4.2618018E-2,5.667028E-1,-3.2286312E-2,7.871828E-2,2.7011966E-2],"categories":[],"categories_nodes":[],"categories_segments":[],"categories_sizes":[],"default_left":[0,0,0,0,0,0,0,0,0,0,0,0,0],"id":19,"left_children":[1,3,-1,5,7,-1,-1,9,-1,11,-1,-1,-1],"loss_changes":[2.2035365E0,2.6412287E0,0E0,2.875898E-1,1.0988734E0,0E0,0E0,1.1502624E0,0E0,1.6826332E-1,0E0,0E0,0E0],"parents":[2147483647,0,0,1,1,3,3,4,4,7,7,9,9],"right_children":[2,4,-1,6,8,-1,-1,10,-1,12,-1,-1,-1],"split_conditions":[7E0,1.5E1,9.568684E-2,1.1E1,1.4E1,-1.3129386E-2,-8.806307E-2,5.2E1,-4.2618018E-2,5.7E1,-3.2286312E-2,7.871828E-2,2.7011966E-2],"split_indices":[3,5,0,0,0,0,0,4,0,2,0,0,0],"split_type":[0,0,0,0,0,0,0,0,0,0,0,0,0],"sum_hessian":[1.2327337E1,1.1294848E1,1.032488E0,3.8529158E0,7.441933E0,1.0515522E0,2.8013637E0,6.036803E0,1.4051301E0,4.824944E0,1.2118589E0,1.8187284E0,3.0062156E0],"tree_param":{"num_deleted":"0","num_feature":"10","num_nodes":"13","size_leaf_vector":"1"}},{"base_weights":[-5.966997E-3,-6.781715E-2,2.2078669E-1,7.1269643E-1,-3.919511E-2,1.0049615E-1,3.2310921E-3,-6.292575E-2,2.4890809E-1,7.825738E-2,-2.0128643E-2,4.6321623E-2,-2.849709E-2],"categories":[],"categories_nodes":[],"categories_segments":[],"categories_sizes":[],"default_left":[0,0,0,0,0,0,0,0,0,0,0,0,0],"id":20,"left_children":[1,-1,3,5,7,-1,-1,-1,9,-1,11,-1,-1],"loss_changes":[2.1289704E0,0E0,1.3661582E0,6.9737697E-1,1.4815596E0,0E0,0E0,0E0,8.7051547E-1,0E0,7.6347196E-1,0E0,0E0],"parents":[2147483647,0,0,2,2,3,3,4,4,8,8,10,10],"right_children":[2,-1,4,6,8,-1,-1,-1,10,-1,12,-1,-1],"split_conditions":[2E0,-6.781715E-2,3.5E1,3.3E1,2.2E1,1.0049615E-1,3.2310921E-3,-6.292575E-2,5.6E1,7.825738E-2,3E0,4.6321623E-2,-2.849709E-2],"split_indices":[3,0,1,4,4,0,0,0,2,0,3,0,0],"split_type":[0,0,0,0,0,0,0,0,0,0,0,0,0],"sum_hessian":[1.1985015E1,2.5209498E0,9.464066E0,2.6702921E0,6.793773E0,1.5342119E0,1.1360801E0,1.8403746E0,4.953398E0,1.0204391E0,3.9329593E0,1.1270442E0,2.805915E0],"tree_param":{"num_deleted":"0","num_feature":"10","num_nodes":"13","size_leaf_vector":"1"}},{"base_weights":[-1.0095673E-4,-6.45663E-1,2.1521518E-1,-1.9492121E-2,-7.5072005E-2,6.437355E-1,-5.4994393E-2,1.1178385E-2,8.173477E-2,-5.151605E-1,2.3354034E-1,-1.4495157E-2,-6.264796E-2,-2.8973505E-2,6.527602E-2],"categories":[],"categories_nodes":[],"categories_segments":[],"categories_sizes":[],"default_left":[0,0,0,0,0,0,0,0,0,0,0,0,0,0,0],"id":21,"left_children":[1,3,5,-1,-1,7,9,-1,-1,11,13,-1,-1,-1,-1],"loss_changes":[1.9105918E0,1.6461968E-2,1.2289408E0,0E0,0E0,2.8403842E-1,1.081977E0,0E0,0E0,3.7077606E-2,1.3166084E0,0E0,0E0,0E0,0E0],"parents":[2147483647,0,0,1,1,2,2,5,5,6,6,9,9,10,10],"right_children":[2,4,6,-1,-1,8,10,-1,-1,12,14,-1,-1,-1,-1],"split_conditions":[2E0,1.0995E2,5.8E1,-1.9492121E-2,-7.5072005E-2,4.407E1,1.5E1,1.1178385E-2,8.173477E-2,4.02E1,7.1E1,-1.4495157E-2,-6.264796E-2,-2.8973505E-2,6.527602E-2],"split_indices":[3,6,2,0,0,6,5,0,0,6,2,0,0,0,0],"split_type":[0,0,0,0,0,0,0,0,0,0,0,0,0,0,0],"sum_hessian":[1.17455845E1,2.4378211E0,9.307764E0,1.0005211E0,1.4373001E0,3.0648766E0,6.2428875E0,1.1586417E0,1.9062347E0,2.1031952E0,4.139692E0,1.0184175E0,1.0847778E0,1.9787111E0,2.160981E0],"tree_param":{"num_deleted":"0","num_feature":"10","num_nodes":"15","size_leaf_vector":"1"}},{"base_weights":[-3.5158515E-3,-7.194832E-2,1.7496236E-1,-4.7618013E-2,3.3959422E-1,7.4911314E-1,7.2514433E-3,1.085156E-2,9.339625E-2,3.5383105E-2,-1.8798928E-1,2.3106383E-2,-4.54259E-2],"categories":[],"categories_nodes":[],"categories_segments":[],"categories_sizes":[],"default_left":[0,0,0,0,0,0,0,0,0,0,0,0,0],"id":22,"left_children":[1,-1,3,-1,5,7,9,-1,-1,-1,11,-1,-1],"loss_changes":[1.7245201E0,0E0,1.3214345E0,0E0,1.249266E0,3.865347E-1,4.791971E-1,0E0,0E0,0E0,6.131204E-1,0E0,0E0],"parents":[2147483647,0,0,2,2,4,4,5,5,6,6,10,10],"right_children":[2,-1,4,-1,6,8,10,-1,-1,-1,12,-1,-1],"split_conditions":[8E0,-7.194832E-2,2E0,-4.7618013E-2,5.9E1,4.4E1,3E0,1.085156E-2,9.339625E-2,3.5383105E-2,4.37E1,2.3106383E-2,-4.54259E-2],"split_indices":[5,0,3,0,2,2,3,0,0,0,6,0,0],"split_type":[0,0,0,0,0,0,0,0,0,0,0,0,0],"sum_hessian":[1.1510411E1,1.6919448E0,9.818466E0,1.5995653E0,8.218902E0,3.1201532E0,5.098748E0,1.0541239E0,2.0660293E0,1.5445949E0,3.554153E0,1.4322727E0,2.1218805E0],"tree_param":{"num_deleted":"0","num_feature":"10","num_nodes":"13","size_leaf_vector":"1"}},{"base_weights":[-3.5286967E-3,-6.9889024E-2,1.6546126E-1,-4.5195278E-2,3.208378E-1,7.103502E-1,8.609559E-3,1.0306647E-2,8.8837855E-2,-3.465233E-2,1.9376662E-1,-4.098482E-2,6.2082227E-2],"categories":[],"categories_nodes":[],"categories_segments":[],"categories_sizes":[],"default_left":[0,0,0,0,0,0,0,0,0,0,0,0,0],"id":23,"left_children":[1,-1,3,-1,5,7,9,-1,-1,-1,11,-1,-1],"loss_changes":[1.5643339E0,0E0,1.1740246E0,0E0,1.1072559E0,3.4748745E-1,4.6784222E-1,0E0,0E0,0E0,1.4522814E0,0E0,0E0],"parents":[2147483647,0,0,2,2,4,4,5,5,6,6,10,10],"right_children":[2,-1,4,-1,6,8,10,-1,-1,-1,12,-1,-1],"split_conditions":[8E0,-6.9889024E-2,2E0,-4.5195278E-2,5.9E1,4.4E1,1.5E1,1.0306647E-2,8.8837855E-2,-3.465233E-2,7.1E1,-4.098482E-2,6.2082227E-2],"split_indices":[5,0,3,0,2,2,5,0,0,0,2,0,0],"split_type":[0,0,0,0,0,0,0,0,0,0,0,0,0],"sum_hessian":[1.1328361E1,1.6017545E0,9.726606E0,1.5718493E0,8.154757E0,3.0609934E0,5.0937634E0,1.05186E0,2.0091333E0,1.446964E0,3.6467993E0,1.5277371E0,2.1190622E0],"tree_param":{"num_deleted":"0","num_feature":"10","num_nodes":"13","size_leaf_vector":"1"}},{"base_weights":[-5.741756E-3,-6.790389E-2,1.5525624E-1,-4.288946E-2,3.0296135E-1,7.162418E-1,2.8506257E-2,9.789134E-3,9.360676E-2,-3.302049E-2,1.9482946E-1,-2.7805863E-2,5.8620643E-2],"categories":[],"categories_nodes":[],"categories_segments":[],"categories_sizes":[],"default_left":[0,0,0,0,0,0,0,0,0,0,0,0,0],"id":24,"left_children":[1,-1,3,-1,5,7,9,-1,-1,-1,11,-1,-1],"loss_changes":[1.4149469E0,0E0,1.041352E0,0E0,1.0023911E0,3.9188218E-1,4.4976383E-1,0E0,0E0,0E0,1.0962799E0,0E0,0E0],"parents":[2147483647,0,0,2,2,4,4,5,5,6,6,10,10],"right_children":[2,-1,4,-1,6,8,10,-1,-1,-1,12,-1,-1],"split_conditions":[8E0,-6.790389E-2,2E0,-4.288946E-2,5.8E1,4.4E1,1.5E1,9.789134E-3,9.360676E-2,-3.302049E-2,7.1E1,-2.7805863E-2,5.8620643E-2],"split_indices":[5,0,3,0,2,2,5,0,0,0,2,0,0],"split_type":[0,0,0,0,0,0,0,0,0,0,0,0,0],"sum_hessian":[1.1080517E1,1.517329E0,9.563188E0,1.5458534E0,8.017335E0,2.5571043E0,5.4602304E0,1.0497013E0,1.5074029E0,1.417586E0,4.0426445E0,1.9618013E0,2.080843E0],"tree_param":{"num_deleted":"0","num_feature":"10","num_nodes":"13","size_leaf_vector":"1"}},{"base_weights":[-6.06957E-3,-6.598845E-2,1.4781857E-1,4.764294E-1,-1.1524759E-1,-1.9073414E-3,6.508955E-1,6.2622055E-2,-5.0220985E-2,1.4048593E-2,7.97728E-2,-2.2666095E-1,6.0065936E-2,2.7384887E-2,-5.1219236E-2],"categories":[],"categories_nodes":[],"categories_segments":[],"categories_sizes":[],"default_left":[0,0,0,0,0,0,0,0,0,0,0,0,0,0,0],"id":25,"left_children":[1,-1,3,5,7,-1,9,11,-1,-1,-1,13,-1,-1,-1],"loss_changes":[1.288562E0,0E0,9.5387304E-1,4.2895305E-1,4.843963E-1,0E0,1.5713704E-1,9.76251E-1,0E0,0E0,0E0,7.4567425E-1,0E0,0E0,0E0],"parents":[2147483647,0,0,2,2,3,3,4,4,6,6,7,7,11,11],"right_children":[2,-1,4,6,8,-1,10,12,-1,-1,-1,14,-1,-1,-1],"split_conditions":[8E0,-6.598845E-2,5.9E1,4.4E1,6.4E1,-1.9073414E-3,3.2E1,5.4E1,-5.0220985E-2,1.4048593E-2,7.97728E-2,2.9E1,6.0065936E-2,2.7384887E-2,-5.1219236E-2],"split_indices":[5,0,2,2,1,0,4,1,0,0,0,4,0,0,0],"split_type":[0,0,0,0,0,0,0,0,0,0,0,0,0,0,0],"sum_hessian":[1.0837464E1,1.4383512E0,9.399113E0,3.8183422E0,5.580771E0,1.2262717E0,2.5920703E0,4.39757E0,1.1832007E0,1.0162445E0,1.5758259E0,3.2362714E0,1.1612986E0,1.1904461E0,2.0458252E0],"tree_param":{"num_deleted":"0","num_feature":"10","num_nodes":"15","size_leaf_vector":"1"}},{"base_weights":[-4.686861E-3,-5.48144E-2,1.7263302E-1,6.078182E-1,-5.7684213E-2,8.877E-2,-1.894809E-3,4.764261E-2,-3.1574494E-1,-6.411313E-2,1.3100038E-1,-2.584893E-2,4.5008507E-2],"categories":[],"categories_nodes":[],"categories_segments":[],"categories_sizes":[],"default_left":[0,0,0,0,0,0,0,0,0,0,0,0,0],"id":26,"left_children":[1,-1,3,5,7,-1,-1,-1,9,-1,11,-1,-1],"loss_changes":[1.2189918E0,0E0,9.9304336E-1,6.122737E-1,1.1377729E0,0E0,0E0,0E0,8.7349415E-1,0E0,5.039867E-1,0E0,0E0],"parents":[2147483647,0,0,2,2,3,3,4,4,8,8,10,10],"right_children":[2,-1,4,6,8,-1,-1,-1,10,-1,12,-1,-1],"split_conditions":[2E0,-5.48144E-2,3.5E1,3.3E1,3E0,8.877E-2,-1.894809E-3,4.764261E-2,3.8E1,-6.411313E-2,6E0,-2.584893E-2,4.5008507E-2],"split_indices":[3,0,1,4,3,0,0,0,4,0,3,0,0],"split_type":[0,0,0,0,0,0,0,0,0,0,0,0,0],"sum_hessian":[1.0667673E1,2.1098988E0,8.557775E0,2.3944347E0,6.1633396E0,1.3674734E0,1.0269612E0,1.7321392E0,4.4312005E0,2.3120823E0,2.1191182E0,1.039797E0,1.0793213E0],"tree_param":{"num_deleted":"0","num_feature":"10","num_nodes":"13","size_leaf_vector":"1"}},{"base_weights":[-1.341412E-3,-6.310133E-2,1.4279443E-1,4.5522514E-1,-1.08455345E-1,-8.907995E-4,6.178873E-1,6.220943E-2,-4.814415E-2,7.311663E-2,2.1118758E-2,-2.1558824E-1,5.6530476E-2,2.3798453E-2,-4.703538E-2],"categories":[],"categories_nodes":[],"categories_segments":[],"categories_sizes":[],"default_left":[0,0,0,0,0,0,0,0,0,0,0,0,0,0,0],"id":27,"left_children":[1,-1,3,5,7,-1,9,11,-1,-1,-1,13,-1,-1,-1],"loss_changes":[1.1348445E0,0E0,8.4868026E-1,3.6268497E-1,4.4062105E-1,0E0,7.6397657E-3,8.6423755E-1,0E0,0E0,0E0,5.910332E-1,0E0,0E0,0E0],"parents":[2147483647,0,0,2,2,3,3,4,4,6,6,7,7,11,11],"right_children":[2,-1,4,6,8,-1,10,12,-1,-1,-1,14,-1,-1,-1],"split_conditions":[8E0,-6.310133E-2,5.9E1,4.4E1,6.4E1,-8.907995E-4,2.3E1,5.4E1,-4.814415E-2,7.311663E-2,2.1118758E-2,2.9E1,5.6530476E-2,2.3798453E-2,-4.703538E-2],"split_indices":[5,0,2,2,1,0,5,1,0,0,0,4,0,0,0],"split_type":[0,0,0,0,0,0,0,0,0,0,0,0,0,0,0],"sum_hessian":[1.0511228E1,1.3287117E0,9.182516E0,3.7310672E0,5.451449E0,1.2135664E0,2.5175009E0,4.3117585E0,1.1396902E0,1.345056E0,1.1724448E0,3.1460555E0,1.1657033E0,1.1552215E0,1.990834E0],"tree_param":{"num_deleted":"0","num_feature":"10","num_nodes":"15","size_leaf_vector":"1"}},{"base_weights":[-9.0446665E-5,-5.200115E-2,1.6700625E-1,5.762479E-1,-4.9198747E-2,8.4256485E-2,-1.5127598E-3,-5.5042215E-2,2.0075515E-1,-1.3380371E-1,4.5402306E-1,-3.1074459E-2,1.0909164E-2,-7.688886E-3,8.207003E-2],"categories":[],"categories_nodes":[],"categories_segments":[],"categories_sizes":[],"default_left":[0,0,0,0,0,0,0,0,0,0,0,0,0,0,0],"id":28,"left_children":[1,-1,3,5,7,-1,-1,-1,9,11,13,-1,-1,-1,-1],"loss_changes":[1.074701E0,0E0,8.5670555E-1,5.348275E-1,9.9338055E-1,0E0,0E0,0E0,5.21268E-1,1.6773525E-1,7.0959115E-1,0E0,0E0,0E0,0E0],"parents":[2147483647,0,0,2,2,3,3,4,4,8,8,9,9,10,10],"right_children":[2,-1,4,6,8,-1,-1,-1,10,12,14,-1,-1,-1,-1],"split_conditions":[2E0,-5.200115E-2,3.5E1,3.3E1,2.2E1,8.4256485E-2,-1.5127598E-3,-5.5042215E-2,5.4E1,7.1E1,1.5E1,-3.1074459E-2,1.0909164E-2,-7.688886E-3,8.207003E-2],"split_indices":[3,0,1,4,4,0,0,0,1,2,5,0,0,0,0],"split_type":[0,0,0,0,0,0,0,0,0,0,0,0,0,0,0],"sum_hessian":[1.0370729E1,2.0086815E0,8.362048E0,2.3149438E0,6.0471044E0,1.3032779E0,1.0116659E0,1.6121749E0,4.43493E0,2.1140406E0,2.3208892E0,1.0614648E0,1.0525758E0,1.2709663E0,1.049923E0],"tree_param":{"num_deleted":"0","num_feature":"10","num_nodes":"15","size_leaf_vector":"1"}},{"base_weights":[2.6507396E-3,-6.0012013E-2,1.3618268E-1,4.320449E-1,-1.0360906E-1,-2.1379402E-4,5.8324474E-1,5.8384005E-2,-4.6009067E-2,6.877411E-2,1.970931E-2,-1.9983555E-1,5.191223E-2,1.5985979E-2,-5.3629976E-2],"categories":[],"categories_nodes":[],"categories_segments":[],"categories_sizes":[],"default_left":[0,0,0,0,0,0,0,0,0,0,0,0,0,0,0],"id":29,"left_children":[1,-1,3,5,7,-1,9,11,-1,-1,-1,13,-1,-1,-1],"loss_changes":[9.81838E-1,0E0,7.5208664E-1,3.069451E-1,3.9144373E-1,0E0,3.9658546E-3,7.257472E-1,0E0,0E0,0E0,5.7860565E-1,0E0,0E0,0E0],"parents":[2147483647,0,0,2,2,3,3,4,4,6,6,7,7,11,11],"right_children":[2,-1,4,6,8,-1,10,12,-1,-1,-1,14,-1,-1,-1],"split_conditions":[8E0,-6.0012013E-2,5.9E1,4.4E1,6.4E1,-2.1379402E-4,2.3E1,5.4E1,-4.6009067E-2,6.877411E-2,1.970931E-2,2.2E1,5.191223E-2,1.5985979E-2,-5.3629976E-2],"split_indices":[5,0,2,2,1,0,5,1,0,0,0,5,0,0,0],"split_type":[0,0,0,0,0,0,0,0,0,0,0,0,0,0,0],"sum_hessian":[1.0183021E1,1.2130475E0,8.969973E0,3.6566E0,5.3133726E0,1.1991119E0,2.4574883E0,4.2282047E0,1.0851676E0,1.319426E0,1.1380624E0,3.072501E0,1.1557039E0,1.738669E0,1.3338319E0],"tree_param":{"num_deleted":"0","num_feature":"10","num_nodes":"15","size_leaf_vector":"1"}},{"base_weights":[1.8809197E-3,-4.942484E-2,1.6049878E-1,5.512836E-1,-4.7279786E-2,9.244128E-3,7.4295126E-2,4.2704772E-2,-2.8108242E-1,-5.9045877E-2,1.287726E-1,-2.4019025E-2,4.267181E-2],"categories":[],"categories_nodes":[],"categories_segments":[],"categories_sizes":[],"default_left":[0,0,0,0,0,0,0,0,0,0,0,0,0],"id":30,"left_children":[1,-1,3,5,7,-1,-1,-1,9,-1,11,-1,-1],"loss_changes":[9.482969E-1,0E0,7.6674545E-1,2.1674848E-1,8.82637E-1,0E0,0E0,0E0,7.365562E-1,0E0,4.3906653E-1,0E0,0E0],"parents":[2147483647,0,0,2,2,3,3,4,4,8,8,10,10],"right_children":[2,-1,4,6,8,-1,-1,-1,10,-1,12,-1,-1],"split_conditions":[2E0,-4.942484E-2,3.5E1,4.37E1,3E0,9.244128E-3,7.4295126E-2,4.2704772E-2,3.8E1,-5.9045877E-2,6E0,-2.4019025E-2,4.267181E-2],"split_indices":[3,0,1,6,3,0,0,0,4,0,3,0,0],"split_type":[0,0,0,0,0,0,0,0,0,0,0,0,0],"sum_hessian":[1.0042266E1,1.9202102E0,8.122055E0,2.2455165E0,5.8765388E0,1.0983721E0,1.1471446E0,1.6673563E0,4.2091823E0,2.1475022E0,2.06168E0,1.0076702E0,1.05401E0],"tree_param":{"num_deleted":"0","num_feature":"10","num_nodes":"13","size_leaf_vector":"1"}},{"base_weights":[4.9831793E-3,-3.7364787E-1,2.1382238E-1,2.9654757E-3,-6.838723E-2,3.5757926E-1,-3.1943865E-2,5.401998E-1,-3.124305E-2,2.6183227E-1,7.142257E-2,-1.5364083E-2,6.428789E-2],"categories":[],"categories_nodes":[],"categories_segments":[],"categories_sizes":[],"default_left":[0,0,0,0,0,0,0,0,0,0,0,0,0],"id":31,"left_children":[1,3,5,-1,-1,7,-1,9,-1,11,-1,-1,-1],"loss_changes":[9.4196355E-1,5.5071247E-1,7.0164E-1,0E0,0E0,9.650018E-1,0E0,7.846236E-2,0E0,6.824497E-1,0E0,0E0,0E0],"parents":[2147483647,0,0,1,1,2,2,5,5,7,7,9,9],"right_children":[2,4,6,-1,-1,8,-1,10,-1,12,-1,-1,-1],"split_conditions":[1.5E1,7.1E1,5.2E1,2.9654757E-3,-6.838723E-2,1.5E1,-3.1943865E-2,2.5E1,-3.124305E-2,7.1E1,7.142257E-2,-1.5364083E-2,6.428789E-2],"split_indices":[5,2,4,0,0,0,0,5,0,2,0,0,0],"split_type":[0,0,0,0,0,0,0,0,0,0,0,0,0],"sum_hessian":[9.902194E0,3.239581E0,6.662613E0,1.8017073E0,1.4378738E0,5.507378E0,1.1552348E0,4.480027E0,1.0273508E0,2.686818E0,1.7932093E0,1.5708447E0,1.1159732E0],"tree_param":{"num_deleted":"0","num_feature":"10","num_nodes":"13","size_leaf_vector":"1"}},{"base_weights":[3.887196E-3,-5.7336994E-2,1.3122684E-1,-3.4839712E-2,2.538733E-1,6.028995E-1,1.9947674E-2,1.2392813E-2,7.778879E-2,-2.9643198E-2,1.7399698E-1,-2.363974E-2,5.1101025E-2],"categories":[],"categories_nodes":[],"categories_segments":[],"categories_sizes":[],"default_left":[0,0,0,0,0,0,0,0,0,0,0,0,0],"id":32,"left_children":[1,-1,3,-1,5,7,9,-1,-1,-1,11,-1,-1],"loss_changes":[8.61457E-1,0E0,6.517752E-1,0E0,6.5786135E-1,1.7667985E-1,3.414038E-1,0E0,0E0,0E0,7.6108897E-1,0E0,0E0],"parents":[2147483647,0,0,2,2,4,4,5,5,6,6,10,10],"right_children":[2,-1,4,-1,6,8,10,-1,-1,-1,12,-1,-1],"split_conditions":[8E0,-5.7336994E-2,2E0,-3.4839712E-2,5.8E1,4.5E1,1.5E1,1.2392813E-2,7.778879E-2,-2.9643198E-2,7.1E1,-2.363974E-2,5.1101025E-2],"split_indices":[5,0,3,0,2,2,5,0,0,0,2,0,0],"split_type":[0,0,0,0,0,0,0,0,0,0,0,0,0],"sum_hessian":[9.695686E0,1.119243E0,8.576443E0,1.3716758E0,7.204767E0,2.2581725E0,4.9465947E0,1.0613351E0,1.1968374E0,1.3171742E0,3.6294208E0,1.7711601E0,1.8582605E0],"tree_param":{"num_deleted":"0","num_feature":"10","num_nodes":"13","size_leaf_vector":"1"}},{"base_weights":[3.1913281E-3,-5.578046E-2,1.2555763E-1,3.97015E-1,-9.7988315E-2,-1.6633898E-3,5.4371517E-2,4.6615776E-2,-3.5542827E-2,-3.289139E-2,3.121913E-1,-3.3865687E-3,5.0742317E-2],"categories":[],"categories_nodes":[],"categories_segments":[],"categories_sizes":[],"default_left":[0,0,0,0,0,0,0,0,0,0,0,0,0],"id":33,"left_children":[1,-1,3,5,7,-1,-1,9,-1,-1,11,-1,-1],"loss_changes":[7.9165965E-1,0E0,6.1211646E-1,2.7991903E-1,2.3926659E-1,0E0,0E0,5.728794E-1,0E0,0E0,2.3842359E-1,0E0,0E0],"parents":[2147483647,0,0,2,2,3,3,4,4,7,7,10,10],"right_children":[2,-1,4,6,8,-1,-1,10,-1,-1,12,-1,-1],"split_conditions":[8E0,-5.578046E-2,5.9E1,4.4E1,2.4E1,-1.6633898E-3,5.4371517E-2,1.5E1,-3.5542827E-2,-3.289139E-2,7.4E1,-3.3865687E-3,5.0742317E-2],"split_indices":[5,0,2,2,5,0,0,5,0,0,2,0,0],"split_type":[0,0,0,0,0,0,0,0,0,0,0,0,0],"sum_hessian":[9.512085E0,1.0660824E0,8.446003E0,3.4638162E0,4.9821863E0,1.1389487E0,2.3248677E0,3.7146127E0,1.2675735E0,1.4399694E0,2.2746434E0,1.1185321E0,1.1561112E0],"tree_param":{"num_deleted":"0","num_feature":"10","num_nodes":"13","size_leaf_vector":"1"}},{"base_weights":[5.3973746E-4,-4.5724925E-2,1.4938831E-1,4.9910712E-1,-3.9158925E-2,8.174764E-3,6.7823805E-2,4.124521E-2,-2.6585355E-1,-5.5051487E-2,1.1750864E-2],"categories":[],"categories_nodes":[],"categories_segments":[],"categories_sizes":[],"default_left":[0,0,0,0,0,0,0,0,0,0,0],"id":34,"left_children":[1,-1,3,5,7,-1,-1,-1,9,-1,-1],"loss_changes":[7.73984E-1,0E0,5.8455795E-1,1.7439497E-1,7.745457E-1,0E0,0E0,0E0,6.02918E-1,0E0,0E0],"parents":[2147483647,0,0,2,2,3,3,4,4,8,8],"right_children":[2,-1,4,6,8,-1,-1,-1,10,-1,-1],"split_conditions":[2E0,-4.5724925E-2,3.5E1,4.37E1,3E0,8.174764E-3,6.7823805E-2,4.124521E-2,3.8E1,-5.5051487E-2,1.1750864E-2],"split_indices":[3,0,1,6,3,0,0,0,4,0,0],"split_type":[0,0,0,0,0,0,0,0,0,0,0],"sum_hessian":[9.356085E0,1.7872934E0,7.5687914E0,2.0742805E0,5.494511E0,1.0602791E0,1.0140015E0,1.56245E0,3.932061E0,2.006293E0,1.9257679E0],"tree_param":{"num_deleted":"0","num_feature":"10","num_nodes":"11","size_leaf_vector":"1"}},{"base_weights":[3.1774843E-3,-3.3387178E-1,1.867153E-1,5.8137937E-3,-6.44341E-2,3.3041614E-1,-3.135157E-2,5.137314E-1,-1.8481435E-2,6.953604E-2,2.2672804E-1,-2.5987012E-2,6.279241E-2],"categories":[],"categories_nodes":[],"categories_segments":[],"categories_sizes":[],"default_left":[0,0,0,0,0,0,0,0,0,0,0,0,0],"id":35,"left_children":[1,3,5,-1,-1,7,-1,9,-1,-1,11,-1,-1],"loss_changes":[6.95758E-1,5.204716E-1,6.262352E-1,0E0,0E0,6.7439705E-1,0E0,9.20167E-2,0E0,0E0,8.152441E-1,0E0,0E0],"parents":[2147483647,0,0,1,1,2,2,5,5,7,7,10,10],"right_children":[2,4,6,-1,-1,8,-1,10,-1,-1,12,-1,-1],"split_conditions":[1.5E1,7.1E1,5.2E1,5.8137937E-3,-6.44341E-2,1.4E1,-3.135157E-2,5.7E1,-1.8481435E-2,6.953604E-2,7.1E1,-2.5987012E-2,6.279241E-2],"split_indices":[5,2,4,0,0,0,0,2,0,0,2,0,0],"split_type":[0,0,0,0,0,0,0,0,0,0,0,0,0],"sum_hessian":[9.239345E0,2.9686391E0,6.270705E0,1.6712278E0,1.2974114E0,5.1350403E0,1.1356648E0,3.7896278E0,1.3454126E0,1.4494926E0,2.3401353E0,1.2166998E0,1.1234355E0],"tree_param":{"num_deleted":"0","num_feature":"10","num_nodes":"13","size_leaf_vector":"1"}},{"base_weights":[2.8644425E-3,-4.389546E-2,1.4673948E-1,-8.809869E-2,3.9337182E-1,-2.9591143E-1,3.0663988E-2,6.9789924E-2,-1.9189827E-2,1.0315385E-2,-5.4363597E-2],"categories":[],"categories_nodes":[],"categories_segments":[],"categories_sizes":[],"default_left":[0,0,0,0,0,0,0,0,0,0,0],"id":36,"left_children":[1,-1,3,5,7,9,-1,-1,-1,-1,-1],"loss_changes":[7.022983E-1,0E0,5.164988E-1,5.073419E-1,8.8975525E-1,4.3529186E-1,0E0,0E0,0E0,0E0,0E0],"parents":[2147483647,0,0,2,2,3,3,4,4,5,5],"right_children":[2,-1,4,6,8,10,-1,-1,-1,-1,-1],"split_conditions":[2E0,-4.389546E-2,4.717E1,5.4E1,1.1E1,3.3E1,3.0663988E-2,6.9789924E-2,-1.9189827E-2,1.0315385E-2,-5.4363597E-2],"split_indices":[3,0,6,1,0,4,0,0,0,0,0],"split_type":[0,0,0,0,0,0,0,0,0,0,0],"sum_hessian":[9.034907E0,1.7156023E0,7.319305E0,4.0785694E0,3.2407353E0,2.8359342E0,1.2426355E0,2.0050364E0,1.2356989E0,1.3097006E0,1.5262334E0],"tree_param":{"num_deleted":"0","num_feature":"10","num_nodes":"11","size_leaf_vector":"1"}},{"base_weights":[1.9314564E-3,-3.233754E-1,1.8206307E-1,5.415455E-3,-6.2745005E-2,3.1797123E-1,-2.8897667E-2,-1.9374337E-2,5.0154245E-1,7.741956E-2,1.1922196E-1,-3.1860854E-2,4.85672E-2],"categories":[],"categories_nodes":[],"categories_segments":[],"categories_sizes":[],"default_left":[0,0,0,0,0,0,0,0,0,0,0,0,0],"id":37,"left_children":[1,3,5,-1,-1,7,-1,-1,9,-1,11,-1,-1],"loss_changes":[6.4082247E-1,4.81637E-1,5.4203826E-1,0E0,0E0,6.5451366E-1,0E0,0E0,3.9193594E-1,0E0,6.5464807E-1,0E0,0E0],"parents":[2147483647,0,0,1,1,2,2,5,5,8,8,10,10],"right_children":[2,4,6,-1,-1,8,-1,-1,10,-1,12,-1,-1],"split_conditions":[1.5E1,7.1E1,5.2E1,5.415455E-3,-6.2745005E-2,2.1E1,-2.8897667E-2,-1.9374337E-2,5.9E1,7.741956E-2,7.5E1,-3.1860854E-2,4.85672E-2],"split_indices":[5,2,4,0,0,4,0,0,2,0,2,0,0],"split_type":[0,0,0,0,0,0,0,0,0,0,0,0,0],"sum_hessian":[8.93118E0,2.8995497E0,6.03163E0,1.6601996E0,1.2393501E0,4.933217E0,1.0984128E0,1.2878511E0,3.6453662E0,1.5295627E0,2.1158035E0,1.0234958E0,1.0923076E0],"tree_param":{"num_deleted":"0","num_feature":"10","num_nodes":"13","size_leaf_vector":"1"}},{"base_weights":[7.1234145E-4,-4.2544853E-2,1.4013824E-1,4.6701115E-2,-3.594282E-2,-3.2308468E-1,3.3002067E-1,-5.384289E-2,1.37178665E-2,6.428365E-2,-1.6518395E-2],"categories":[],"categories_nodes":[],"categories_segments":[],"categories_sizes":[],"default_left":[0,0,0,0,0,0,0,0,0,0,0],"id":38,"left_children":[1,-1,3,-1,5,7,9,-1,-1,-1,-1],"loss_changes":[6.392294E-1,0E0,4.8312247E-1,0E0,7.575398E-1,4.6796513E-1,6.046857E-1,0E0,0E0,0E0,0E0],"parents":[2147483647,0,0,2,2,4,4,5,5,6,6],"right_children":[2,-1,4,-1,6,8,10,-1,-1,-1,-1],"split_conditions":[2E0,-4.2544853E-2,3.5E1,4.6701115E-2,5.4E1,1.3822E2,7.4E1,-5.384289E-2,1.37178665E-2,6.428365E-2,-1.6518395E-2],"split_indices":[3,0,1,0,1,6,2,0,0,0,0],"split_type":[0,0,0,0,0,0,0,0,0,0,0],"sum_hessian":[8.754774E0,1.6524779E0,7.102297E0,1.908027E0,5.1942697E0,2.9762301E0,2.2180395E0,1.9118853E0,1.0643449E0,1.176643E0,1.0413964E0],"tree_param":{"num_deleted":"0","num_feature":"10","num_nodes":"11","size_leaf_vector":"1"}},{"base_weights":[1.7536713E-3,-3.122725E-1,1.7572317E-1,5.0496305E-3,-6.075613E-2,3.089936E-1,-2.7874103E-2,4.928129E-1,-1.8740151E-2,6.1081994E-2,1.8417781E-2],"categories":[],"categories_nodes":[],"categories_segments":[],"categories_sizes":[],"default_left":[0,0,0,0,0,0,0,0,0,0,0],"id":39,"left_children":[1,3,5,-1,-1,7,-1,9,-1,-1,-1],"loss_changes":[5.822344E-1,4.3789363E-1,5.0111544E-1,0E0,0E0,6.190629E-1,0E0,5.095637E-2,0E0,0E0,0E0],"parents":[2147483647,0,0,1,1,2,2,5,5,7,7],"right_children":[2,4,6,-1,-1,8,-1,10,-1,-1,-1],"split_conditions":[1.5E1,7.1E1,5.2E1,5.0496305E-3,-6.075613E-2,1.4E1,-2.7874103E-2,3.4E1,-1.8740151E-2,6.1081994E-2,1.8417781E-2],"split_indices":[5,2,4,0,0,0,0,4,0,0,0],"split_type":[0,0,0,0,0,0,0,0,0,0,0],"sum_hessian":[8.653149E0,2.8014202E0,5.8517284E0,1.6290679E0,1.1723523E0,4.772343E0,1.0793848E0,3.4879446E0,1.2843988E0,1.8149104E0,1.6730342E0],"tree_param":{"num_deleted":"0","num_feature":"10","num_nodes":"11","size_leaf_vector":"1"}},{"base_weights":[-7.937149E-4,-4.1098434E-2,1.344791E-1,-7.883062E-2,3.6079046E-1,-2.7554584E-1,2.8936118E-2,6.415155E-2,-1.7593889E-2,9.618826E-3,-5.021542E-2],"categories":[],"categories_nodes":[],"categories_segments":[],"categories_sizes":[],"default_left":[0,0,0,0,0,0,0,0,0,0,0],"id":40,"left_children":[1,-1,3,5,7,9,-1,-1,-1,-1,-1],"loss_changes":[5.8313113E-1,0E0,4.1016567E-1,4.3400437E-1,7.179837E-1,3.6000356E-1,0E0,0E0,0E0,0E0,0E0],"parents":[2147483647,0,0,2,2,3,3,4,4,5,5],"right_children":[2,-1,4,6,8,10,-1,-1,-1,-1,-1],"split_conditions":[2E0,-4.1098434E-2,4.717E1,5.4E1,1.1E1,3.3E1,2.8936118E-2,6.415155E-2,-1.7593889E-2,9.618826E-3,-5.021542E-2],"split_indices":[3,0,6,1,0,4,0,0,0,0,0],"split_type":[0,0,0,0,0,0,0,0,0,0,0],"sum_hessian":[8.51315E0,1.6057656E0,6.907385E0,3.8913066E0,3.0160785E0,2.7002552E0,1.1910514E0,1.8521298E0,1.1639487E0,1.240628E0,1.4596272E0],"tree_param":{"num_deleted":"0","num_feature":"10","num_nodes":"11","size_leaf_vector":"1"}},{"base_weights":[-1.3900572E-3,-1.184867E-1,4.3544393E-2,-3.409301E-1,1.20134205E-1,-5.6551754E-2,1.6957443E-2,-3.8444467E-2,3.6421087E-1,-1.1954477E-2,6.389328E-2],"categories":[],"categories_nodes":[],"categories_segments":[],"categories_sizes":[],"default_left":[0,0,0,0,0,0,0,0,0,0,0],"id":41,"left_children":[1,3,-1,5,7,-1,-1,-1,9,-1,-1],"loss_changes":[5.335212E-1,4.770581E-1,0E0,6.132894E-1,7.192567E-1,0E0,0E0,0E0,5.659033E-1,0E0,0E0],"parents":[2147483647,0,0,1,1,3,3,4,4,8,8],"right_children":[2,4,-1,6,8,-1,-1,-1,10,-1,-1],"split_conditions":[2.8E1,4.717E1,4.3544393E-2,5.6E1,2E0,-5.6551754E-2,1.6957443E-2,-3.8444467E-2,1.5E1,-1.1954477E-2,6.389328E-2],"split_indices":[5,6,0,1,3,0,0,0,5,0,0],"split_type":[0,0,0,0,0,0,0,0,0,0,0],"sum_hessian":[8.421505E0,7.2159696E0,1.2055348E0,3.5126815E0,3.703288E0,2.3646386E0,1.148043E0,1.0198525E0,2.6834357E0,1.1765355E0,1.5069002E0],"tree_param":{"num_deleted":"0","num_feature":"10","num_nodes":"11","size_leaf_vector":"1"}},{"base_weights":[6.1227183E-4,-2.9625696E-1,1.6803287E-1,5.820138E-3,-5.907581E-2,2.8891587E-1,-2.4781024E-2,-1.9454386E-2,4.663335E-1,7.274425E-2,9.781524E-3],"categories":[],"categories_nodes":[],"categories_segments":[],"categories_sizes":[],"default_left":[0,0,0,0,0,0,0,0,0,0,0],"id":42,"left_children":[1,3,5,-1,-1,7,-1,-1,9,-1,-1],"loss_changes":[5.1152503E-1,4.2186534E-1,4.0227762E-1,0E0,0E0,5.6749326E-1,0E0,0E0,3.4843725E-1,0E0,0E0],"parents":[2147483647,0,0,1,1,2,2,5,5,8,8],"right_children":[2,4,6,-1,-1,8,-1,-1,10,-1,-1],"split_conditions":[1.5E1,7.1E1,5.2E1,5.820138E-3,-5.907581E-2,2.1E1,-2.4781024E-2,-1.9454386E-2,5.9E1,7.274425E-2,9.781524E-3],"split_indices":[5,2,4,0,0,4,0,0,2,0,0],"split_type":[0,0,0,0,0,0,0,0,0,0,0],"sum_hessian":[8.290248E0,2.711931E0,5.578317E0,1.5948092E0,1.1171218E0,4.5584364E0,1.0198805E0,1.1978331E0,3.3606033E0,1.3968893E0,1.9637141E0],"tree_param":{"num_deleted":"0","num_feature":"10","num_nodes":"11","size_leaf_vector":"1"}},{"base_weights":[-1.0086787E-3,-3.8860615E-2,1.269207E-1,4.605336E-2,-2.218226E-2,-2.722549E-1,3.1767258E-1,-4.611903E-2,1.2760374E-2,7.1072453E-3,4.061276E-2],"categories":[],"categories_nodes":[],"categories_segments":[],"categories_sizes":[],"default_left":[0,0,0,0,0,0,0,0,0,0,0],"id":43,"left_children":[1,-1,3,-1,5,7,9,-1,-1,-1,-1],"loss_changes":[5.037112E-1,0E0,3.9042866E-1,0E0,6.16532E-1,3.7096724E-1,3.8870454E-2,0E0,0E0,0E0,0E0],"parents":[2147483647,0,0,2,2,4,4,5,5,6,6],"right_children":[2,-1,4,-1,6,8,10,-1,-1,-1,-1],"split_conditions":[2E0,-3.8860615E-2,3.2E1,4.605336E-2,5.4E1,1.3822E2,4.1E1,-4.611903E-2,1.2760374E-2,7.1072453E-3,4.061276E-2],"split_indices":[3,0,1,0,1,6,4,0,0,0,0],"split_type":[0,0,0,0,0,0,0,0,0,0,0],"sum_hessian":[8.16382E0,1.5202227E0,6.6435976E0,1.406934E0,5.236664E0,3.131411E0,2.1052527E0,2.022422E0,1.108989E0,1.0319127E0,1.0733399E0],"tree_param":{"num_deleted":"0","num_feature":"10","num_nodes":"11","size_leaf_vector":"1"}},{"base_weights":[1.3556624E-3,-2.888523E-1,1.6492338E-1,5.709739E-3,-5.776396E-2,2.8328967E-1,-2.3901306E-2,-1.811099E-2,4.5280477E-1,7.045587E-2,9.809738E-3],"categories":[],"categories_nodes":[],"categories_segments":[],"categories_sizes":[],"default_left":[0,0,0,0,0,0,0,0,0,0,0],"id":44,"left_children":[1,3,5,-1,-1,7,-1,-1,9,-1,-1],"loss_changes":[4.7910574E-1,3.966241E-1,3.760845E-1,0E0,0E0,5.107026E-1,0E0,0E0,3.1264848E-1,0E0,0E0],"parents":[2147483647,0,0,1,1,2,2,5,5,8,8],"right_children":[2,4,6,-1,-1,8,-1,-1,10,-1,-1],"split_conditions":[1.5E1,7.1E1,5.2E1,5.709739E-3,-5.776396E-2,2.1E1,-2.3901306E-2,-1.811099E-2,5.9E1,7.045587E-2,9.809738E-3],"split_indices":[5,2,4,0,0,4,0,0,2,0,0],"split_type":[0,0,0,0,0,0,0,0,0,0,0],"sum_hessian":[8.0895195E0,2.63985E0,5.4496694E0,1.5660738E0,1.073776E0,4.4456344E0,1.0040354E0,1.1705159E0,3.2751184E0,1.3386794E0,1.9364388E0],"tree_param":{"num_deleted":"0","num_feature":"10","num_nodes":"11","size_leaf_vector":"1"}},{"base_weights":[-2.3961929E-4,-3.777692E-2,1.241554E-1,4.3245297E-2,-1.510868E-2,-2.5951788E-1,3.1388944E-1,-4.4254508E-2,1.2299853E-2,7.065702E-3,3.9834183E-2],"categories":[],"categories_nodes":[],"categories_segments":[],"categories_sizes":[],"default_left":[0,0,0,0,0,0,0,0,0,0,0],"id":45,"left_children":[1,-1,3,-1,5,7,9,-1,-1,-1,-1],"loss_changes":[4.6811125E-1,0E0,3.2849294E-1,0E0,5.7451093E-1,3.3906412E-1,3.483814E-2,0E0,0E0,0E0,0E0],"parents":[2147483647,0,0,2,2,4,4,5,5,6,6],"right_children":[2,-1,4,-1,6,8,10,-1,-1,-1,-1],"split_conditions":[2E0,-3.777692E-2,3.2E1,4.3245297E-2,5.4E1,1.3822E2,4.1E1,-4.4254508E-2,1.2299853E-2,7.065702E-3,3.9834183E-2],"split_indices":[3,0,1,0,1,6,4,0,0,0,0],"split_type":[0,0,0,0,0,0,0,0,0,0,0],"sum_hessian":[7.968995E0,1.4701992E0,6.498796E0,1.3670965E0,5.1316996E0,3.0655344E0,2.0661652E0,1.9672904E0,1.0982438E0,1.0058507E0,1.0603145E0],"tree_param":{"num_deleted":"0","num_feature":"10","num_nodes":"11","size_leaf_vector":"1"}},{"base_weights":[1.9810055E-3,-2.821061E-1,1.6204412E-1,5.5731833E-3,-5.6512576E-2,2.7224267E-1,-2.055343E-2,4.4309756E-1,-1.8100442E-2,5.5753767E-2,1.532234E-2],"categories":[],"categories_nodes":[],"categories_segments":[],"categories_sizes":[],"default_left":[0,0,0,0,0,0,0,0,0,0,0],"id":46,"left_children":[1,3,5,-1,-1,7,-1,9,-1,-1,-1],"loss_changes":[4.503752E-1,3.7302452E-1,3.1225014E-1,0E0,0E0,4.9048156E-1,0E0,5.183232E-2,0E0,0E0,0E0],"parents":[2147483647,0,0,1,1,2,2,5,5,7,7],"right_children":[2,4,6,-1,-1,8,-1,10,-1,-1,-1],"split_conditions":[1.5E1,7.1E1,4.9E1,5.5731833E-3,-5.6512576E-2,1.4E1,-2.055343E-2,3.4E1,-1.8100442E-2,5.5753767E-2,1.532234E-2],"split_indices":[5,2,4,0,0,0,0,4,0,0,0],"split_type":[0,0,0,0,0,0,0,0,0,0,0],"sum_hessian":[7.8991632E0,2.5719266E0,5.327237E0,1.5385069E0,1.0334196E0,4.298058E0,1.0291789E0,3.137679E0,1.1603789E0,1.587549E0,1.5501302E0],"tree_param":{"num_deleted":"0","num_feature":"10","num_nodes":"11","size_leaf_vector":"1"}},{"base_weights":[-3.005584E-4,-3.6578752E-2,1.2078737E-1,-1.418769E-1,2.5100043E-1,-3.7823733E-2,1.6720438E-2,5.2398384E-2,-4.5473933E-2,-4.272994E-2,3.6408614E-2],"categories":[],"categories_nodes":[],"categories_segments":[],"categories_sizes":[],"default_left":[0,0,0,0,0,0,0,0,0,0,0],"id":47,"left_children":[1,-1,3,5,7,-1,-1,-1,9,-1,-1],"loss_changes":[4.330282E-1,0E0,2.8704947E-1,2.8791624E-1,4.508346E-1,0E0,0E0,0E0,6.949868E-1,0E0,0E0],"parents":[2147483647,0,0,2,2,3,3,4,4,8,8],"right_children":[2,-1,4,6,8,-1,-1,-1,10,-1,-1],"split_conditions":[2E0,-3.6578752E-2,4.195E1,6E0,4.4E1,-3.7823733E-2,1.6720438E-2,5.2398384E-2,5.4E1,-4.272994E-2,3.6408614E-2],"split_indices":[3,0,6,3,1,0,0,0,1,0,0],"split_type":[0,0,0,0,0,0,0,0,0,0,0],"sum_hessian":[7.786271E0,1.4347715E0,6.3514996E0,2.075417E0,4.2760825E0,1.0492718E0,1.0261453E0,1.826719E0,2.4493632E0,1.245186E0,1.2041774E0],"tree_param":{"num_deleted":"0","num_feature":"10","num_nodes":"11","size_leaf_vector":"1"}},{"base_weights":[-1.625453E-3,-2.7119783E-1,1.5083383E-1,-3.909049E-2,1.0677028E-3,-1.8855961E-2,2.6229486E-1,4.1951954E-1,-1.8880853E-2,6.6786095E-2,8.124568E-3],"categories":[],"categories_nodes":[],"categories_segments":[],"categories_sizes":[],"default_left":[0,0,0,0,0,0,0,0,0,0,0],"id":48,"left_children":[1,3,5,-1,-1,-1,7,9,-1,-1,-1],"loss_changes":[3.975913E-1,1.2202239E-1,2.8347427E-1,0E0,0E0,0E0,4.3915215E-1,2.8796244E-1,0E0,0E0,0E0],"parents":[2147483647,0,0,1,1,2,2,6,6,7,7],"right_children":[2,4,6,-1,-1,-1,8,10,-1,-1,-1],"split_conditions":[1.5E1,1.6E1,2.1E1,-3.909049E-2,1.0677028E-3,-1.8855961E-2,4.9E1,5.9E1,-1.8880853E-2,6.6786095E-2,8.124568E-3],"split_indices":[5,0,4,0,0,0,4,2,0,0,0],"split_type":[0,0,0,0,0,0,0,0,0,0,0],"sum_hessian":[7.67873E0,2.4925976E0,5.186132E0,1.4780807E0,1.014517E0,1.1111192E0,4.075013E0,3.0737298E0,1.0012834E0,1.2106322E0,1.8630974E0],"tree_param":{"num_deleted":"0","num_feature":"10","num_nodes":"11","size_leaf_vector":"1"}},{"base_weights":[-1.4716598E-3,-3.532813E-2,1.15201056E-1,3.977142E-2,-1.3016363E-2,-2.5523436E-1,3.0749623E-2,-4.192973E-2,9.973618E-3],"categories":[],"categories_nodes":[],"categories_segments":[],"categories_sizes":[],"default_left":[0,0,0,0,0,0,0,0,0],"id":49,"left_children":[1,-1,3,-1,5,7,-1,-1,-1],"loss_changes":[3.9273825E-1,0E0,2.6579267E-1,0E0,5.3784925E-1,2.6991233E-1,0E0,0E0,0E0],"parents":[2147483647,0,0,2,2,4,4,5,5],"right_children":[2,-1,4,-1,6,8,-1,-1,-1],"split_conditions":[2E0,-3.532813E-2,3.2E1,3.977142E-2,5.4E1,1.3822E2,3.0749623E-2,-4.192973E-2,9.973618E-3],"split_indices":[3,0,1,0,1,6,0,0,0],"split_type":[0,0,0,0,0,0,0,0,0],"sum_hessian":[7.5765924E0,1.3818513E0,6.1947412E0,1.2776672E0,4.917074E0,2.9166043E0,2.00047E0,1.87075E0,1.0458543E0],"tree_param":{"num_deleted":"0","num_feature":"10","num_nodes":"9","size_leaf_vector":"1"}},{"base_weights":[-1.0381971E-3,-2.632869E-1,1.4780618E-1,-3.7750274E-2,6.350673E-4,-2.700463E-2,4.03247E-2,3.2004133E-2,-3.463353E-2],"categories":[],"categories_nodes":[],"categories_segments":[],"categories_sizes":[],"default_left":[0,0,0,0,0,0,0,0,0],"id":50,"left_children":[1,3,5,-1,-1,7,-1,-1,-1],"loss_changes":[3.7127602E-1,1.08413234E-1,2.820351E-1,0E0,0E0,6.1422896E-1,0E0,0E0,0E0],"parents":[2147483647,0,0,1,1,2,2,5,5],"right_children":[2,4,6,-1,-1,8,-1,-1,-1],"split_conditions":[1.5E1,1.6E1,7.1E1,-3.7750274E-2,6.350673E-4,5.7E1,4.03247E-2,3.2004133E-2,-3.463353E-2],"split_indices":[5,0,2,0,0,2,0,0,0],"split_type":[0,0,0,0,0,0,0,0,0],"sum_hessian":[7.514591E0,2.4424207E0,5.0721703E0,1.4346704E0,1.0077502E0,3.5422888E0,1.5298817E0,1.696414E0,1.8458747E0],"tree_param":{"num_deleted":"0","num_feature":"10","num_nodes":"9","size_leaf_vector":"1"}},{"base_weights":[-9.1764604E-4,-3.366495E-2,1.1008692E-1,-1.3718289E-1,2.3473418E-1,-2.5251625E-2,4.6499395E-3,4.916003E-2,-4.5108825E-2,-3.9307542E-2,3.2687098E-2],"categories":[],"categories_nodes":[],"categories_segments":[],"categories_sizes":[],"default_left":[0,0,0,0,0,0,0,0,0,0,0],"id":51,"left_children":[1,-1,3,5,7,-1,-1,-1,9,-1,-1],"loss_changes":[3.5096878E-1,0E0,2.5053096E-1,7.5406626E-2,3.8722536E-1,0E0,0E0,0E0,5.616405E-1,0E0,0E0],"parents":[2147483647,0,0,2,2,3,3,4,4,8,8],"right_children":[2,-1,4,6,8,-1,-1,-1,10,-1,-1],"split_conditions":[2E0,-3.366495E-2,4.195E1,5E1,4.4E1,-2.5251625E-2,4.6499395E-3,4.916003E-2,5.4E1,-3.9307542E-2,3.2687098E-2],"split_indices":[3,0,6,1,1,0,0,0,1,0,0],"split_type":[0,0,0,0,0,0,0,0,0,0,0],"sum_hessian":[7.4230447E0,1.3393735E0,6.083671E0,2.0052247E0,4.0784464E0,1.0015875E0,1.0036373E0,1.731976E0,2.3464704E0,1.1830658E0,1.1634045E0],"tree_param":{"num_deleted":"0","num_feature":"10","num_nodes":"11","size_leaf_vector":"1"}},{"base_weights":[-2.2280049E-3,-1.0155368E-1,3.5892528E-2,-2.8908747E-1,1.07621595E-1,-4.836386E-2,1.4700258E-2,3.3805463E-2,-2.513446E-2],"categories":[],"categories_nodes":[],"categories_segments":[],"categories_sizes":[],"default_left":[0,0,0,0,0,0,0,0,0],"id":52,"left_children":[1,3,-1,5,7,-1,-1,-1,-1],"loss_changes":[3.3547866E-1,3.1815505E-1,0E0,4.2145726E-1,4.313753E-1,0E0,0E0,0E0,0E0],"parents":[2147483647,0,0,1,1,3,3,4,4],"right_children":[2,4,-1,6,8,-1,-1,-1,-1],"split_conditions":[2.8E1,4.717E1,3.5892528E-2,5.6E1,1.1E1,-4.836386E-2,1.4700258E-2,3.3805463E-2,-2.513446E-2],"split_indices":[5,6,0,1,0,0,0,0,0],"split_type":[0,0,0,0,0,0,0,0,0],"sum_hessian":[7.3360333E0,6.317405E0,1.0186282E0,3.1295798E0,3.1878252E0,2.0887156E0,1.0408643E0,1.9769844E0,1.210841E0],"tree_param":{"num_deleted":"0","num_feature":"10","num_nodes":"9","size_leaf_vector":"1"}},{"base_weights":[-7.892677E-4,-2.502301E-1,1.4177679E-1,-3.3707585E-2,-3.0929453E-3,-2.8003732E-2,3.8788065E-2,2.9823843E-2,-3.2760642E-2],"categories":[],"categories_nodes":[],"categories_segments":[],"categories_sizes":[],"default_left":[0,0,0,0,0,0,0,0,0],"id":53,"left_children":[1,3,5,-1,-1,7,-1,-1,-1],"loss_changes":[3.2956776E-1,5.3743318E-2,2.5741005E-1,0E0,0E0,5.301587E-1,0E0,0E0,0E0],"parents":[2147483647,0,0,1,1,2,2,5,5],"right_children":[2,4,6,-1,-1,8,-1,-1,-1],"split_conditions":[1.5E1,3.7E1,7.1E1,-3.3707585E-2,-3.0929453E-3,5.7E1,3.8788065E-2,2.9823843E-2,-3.2760642E-2],"split_indices":[5,4,2,0,0,2,0,0,0],"split_type":[0,0,0,0,0,0,0,0,0],"sum_hessian":[7.269856E0,2.369271E0,4.9005847E0,1.3124685E0,1.0568025E0,3.4243965E0,1.4761884E0,1.6414973E0,1.7828991E0],"tree_param":{"num_deleted":"0","num_feature":"10","num_nodes":"9","size_leaf_vector":"1"}},{"base_weights":[-8.609543E-4,-1.2555254E-1,2.8745994E-2,8.541879E-2,-4.9278524E-2,3.75058E-2,-1.7798412E-1,-3.8255062E-2,1.07583385E-2],"categories":[],"categories_nodes":[],"categories_segments":[],"categories_sizes":[],"default_left":[0,0,0,0,0,0,0,0,0],"id":54,"left_children":[1,3,-1,5,-1,-1,7,-1,-1],"loss_changes":[3.30451E-1,5.388526E-1,0E0,4.4245997E-1,0E0,0E0,2.3143819E-1,0E0,0E0],"parents":[2147483647,0,0,1,1,3,3,6,6],"right_children":[2,4,-1,6,-1,-1,8,-1,-1],"split_conditions":[6E0,1.4E1,2.8745994E-2,3.4E1,-4.9278524E-2,3.75058E-2,4.6E1,-3.8255062E-2,1.07583385E-2],"split_indices":[3,0,0,4,0,0,1,0,0],"split_type":[0,0,0,0,0,0,0,0,0],"sum_hessian":[7.18776E0,5.4118214E0,1.7759386E0,3.924586E0,1.4872351E0,1.6673094E0,2.2572768E0,1.1172899E0,1.1399869E0],"tree_param":{"num_deleted":"0","num_feature":"10","num_nodes":"9","size_leaf_vector":"1"}},{"base_weights":[-2.2134462E-3,-3.2335013E-2,1.0451471E-1,3.5933744E-2,-3.1384915E-2,-2.7217522E-1,2.6173508E-2,-1.8170405E-3,-4.3454647E-2],"categories":[],"categories_nodes":[],"categories_segments":[],"categories_sizes":[],"default_left":[0,0,0,0,0,0,0,0,0],"id":55,"left_children":[1,-1,3,-1,5,7,-1,-1,-1],"loss_changes":[3.1179035E-1,0E0,2.4826732E-1,0E0,4.5116088E-1,1.3420439E-1,0E0,0E0,0E0],"parents":[2147483647,0,0,2,2,4,4,5,5],"right_children":[2,-1,4,-1,6,8,-1,-1,-1],"split_conditions":[2E0,-3.2335013E-2,3.5E1,3.5933744E-2,5.4E1,4.6E1,2.6173508E-2,-1.8170405E-3,-4.3454647E-2],"split_indices":[3,0,1,0,1,1,0,0,0],"split_type":[0,0,0,0,0,0,0,0,0],"sum_hessian":[7.110895E0,1.2674813E0,5.8434134E0,1.4605765E0,4.382837E0,2.4454331E0,1.9374039E0,1.3872308E0,1.0582024E0],"tree_param":{"num_deleted":"0","num_feature":"10","num_nodes":"9","size_leaf_vector":"1"}},{"base_weights":[-4.007183E-3,-2.4611638E-1,1.3596742E-1,-3.227828E-2,-4.176122E-3,-2.4781505E-2,3.6586713E-2,2.8463623E-2,-3.1067103E-2],"categories":[],"categories_nodes":[],"categories_segments":[],"categories_sizes":[],"default_left":[0,0,0,0,0,0,0,0,0],"id":56,"left_children":[1,3,5,-1,-1,7,-1,-1,-1],"loss_changes":[3.0643457E-1,3.832686E-2,2.2149476E-1,0E0,0E0,4.7051686E-1,0E0,0E0,0E0],"parents":[2147483647,0,0,1,1,2,2,5,5],"right_children":[2,4,6,-1,-1,8,-1,-1,-1],"split_conditions":[1.5E1,3.7E1,7.1E1,-3.227828E-2,-4.176122E-3,5.7E1,3.6586713E-2,2.8463623E-2,-3.1067103E-2],"split_indices":[5,4,2,0,0,2,0,0,0],"split_type":[0,0,0,0,0,0,0,0,0],"sum_hessian":[7.0548153E0,2.3067012E0,4.748114E0,1.2559843E0,1.0507169E0,3.3193722E0,1.4287419E0,1.5961959E0,1.7231762E0],"tree_param":{"num_deleted":"0","num_feature":"10","num_nodes":"9","size_leaf_vector":"1"}},{"base_weights":[-3.9753383E-3,-1.20507345E-1,2.623847E-2,7.832208E-2,-4.6980605E-2,3.6344886E-2,-1.7778102E-1,-3.7089024E-2,9.541119E-3],"categories":[],"categories_nodes":[],"categories_segments":[],"categories_sizes":[],"default_left":[0,0,0,0,0,0,0,0,0],"id":57,"left_children":[1,3,-1,5,-1,-1,7,-1,-1],"loss_changes":[2.7929112E-1,4.6989626E-1,0E0,4.1738927E-1,0E0,0E0,2.0508197E-1,0E0,0E0],"parents":[2147483647,0,0,1,1,3,3,6,6],"right_children":[2,4,-1,6,-1,-1,8,-1,-1],"split_conditions":[6E0,1.4E1,2.623847E-2,3.4E1,-4.6980605E-2,3.6344886E-2,4.6E1,-3.7089024E-2,9.541119E-3],"split_indices":[3,0,0,4,0,0,1,0,0],"split_type":[0,0,0,0,0,0,0,0,0],"sum_hessian":[6.9792557E0,5.2360644E0,1.7431911E0,3.831088E0,1.4049764E0,1.6144854E0,2.2166028E0,1.089125E0,1.1274776E0],"tree_param":{"num_deleted":"0","num_feature":"10","num_nodes":"9","size_leaf_vector":"1"}},{"base_weights":[-5.238299E-3,-2.3879665E-1,1.3073196E-1,-3.107633E-2,-4.371885E-3,-9.586955E-3,2.6678735E-1,5.6416877E-2,-1.061081E-2],"categories":[],"categories_nodes":[],"categories_segments":[],"categories_sizes":[],"default_left":[0,0,0,0,0,0,0,0,0],"id":58,"left_children":[1,3,5,-1,-1,-1,7,-1,-1],"loss_changes":[2.82395E-1,3.223835E-2,1.9962244E-1,0E0,0E0,0E0,4.8033562E-1,0E0,0E0],"parents":[2147483647,0,0,1,1,2,2,6,6],"right_children":[2,4,6,-1,-1,-1,8,-1,-1],"split_conditions":[1.5E1,3.7E1,3.9E1,-3.107633E-2,-4.371885E-3,-9.586955E-3,3E0,5.6416877E-2,-1.061081E-2],"split_indices":[5,4,1,0,0,0,3,0,0],"split_type":[0,0,0,0,0,0,0,0,0],"sum_hessian":[6.909335E0,2.2640674E0,4.645268E0,1.2207099E0,1.0433575E0,1.8535415E0,2.7917264E0,1.267758E0,1.5239685E0],"tree_param":{"num_deleted":"0","num_feature":"10","num_nodes":"9","size_leaf_vector":"1"}},{"base_weights":[-4.601051E-3,-3.132187E-2,9.790134E-2,3.49194E-2,-3.684882E-2,3.1929884E-2,-2.1587709E-1,-4.9365826E-2,1.3203859E-2],"categories":[],"categories_nodes":[],"categories_segments":[],"categories_sizes":[],"default_left":[0,0,0,0,0,0,0,0,0],"id":59,"left_children":[1,-1,3,-1,5,-1,7,-1,-1],"loss_changes":[2.7915126E-1,0E0,2.3833406E-1,0E0,4.0295997E-1,0E0,4.597764E-1,0E0,0E0],"parents":[2147483647,0,0,2,2,4,4,6,6],"right_children":[2,-1,4,-1,6,-1,8,-1,-1],"split_conditions":[2E0,-3.132187E-2,3.5E1,3.49194E-2,3E0,3.1929884E-2,3.8E1,-4.9365826E-2,1.3203859E-2],"split_indices":[3,0,1,0,3,0,4,0,0],"split_type":[0,0,0,0,0,0,0,0,0],"sum_hessian":[6.855042E0,1.1965895E0,5.6584525E0,1.4196185E0,4.238834E0,1.1558826E0,3.0829515E0,1.4813318E0,1.6016196E0],"tree_param":{"num_deleted":"0","num_feature":"10","num_nodes":"9","size_leaf_vector":"1"}},{"base_weights":[-4.363647E-3,-1.1843544E-1,2.5278095E-2,6.9139026E-2,-4.5011092E-2,2.7749315E-1,-2.5667489E-2,4.437038E-2,-3.6511195E-3],"categories":[],"categories_nodes":[],"categories_segments":[],"categories_sizes":[],"default_left":[0,0,0,0,0,0,0,0,0],"id":60,"left_children":[1,3,-1,5,-1,7,-1,-1,-1],"loss_changes":[2.583176E-1,4.090205E-1,0E0,3.9346093E-1,0E0,1.9238663E-1,0E0,0E0,0E0],"parents":[2147483647,0,0,1,1,3,3,5,5],"right_children":[2,4,-1,6,-1,8,-1,-1,-1],"split_conditions":[6E0,1.4E1,2.5278095E-2,4E1,-4.5011092E-2,1.0254E2,-2.5667489E-2,4.437038E-2,-3.6511195E-3],"split_indices":[3,0,0,4,0,6,0,0,0],"split_type":[0,0,0,0,0,0,0,0,0],"sum_hessian":[6.7857637E0,5.0742145E0,1.7115493E0,3.7468061E0,1.3274084E0,2.375811E0,1.3709952E0,1.2834159E0,1.0923952E0],"tree_param":{"num_deleted":"0","num_feature":"10","num_nodes":"9","size_leaf_vector":"1"}},{"base_weights":[-4.637973E-3,-2.2979946E-1,1.2661918E-1,-2.9850392E-2,-4.60526E-3,-9.460227E-3,2.5938883E-1,5.4258775E-2,-9.611729E-3],"categories":[],"categories_nodes":[],"categories_segments":[],"categories_sizes":[],"default_left":[0,0,0,0,0,0,0,0,0],"id":61,"left_children":[1,3,5,-1,-1,-1,7,-1,-1],"loss_changes":[2.5698218E-1,2.658604E-2,1.8654928E-1,0E0,0E0,0E0,4.2610687E-1,0E0,0E0],"parents":[2147483647,0,0,1,1,2,2,6,6],"right_children":[2,4,6,-1,-1,-1,8,-1,-1],"split_conditions":[1.5E1,1.5E1,3.9E1,-2.9850392E-2,-4.60526E-3,-9.460227E-3,3E0,5.4258775E-2,-9.611729E-3],"split_indices":[5,0,1,0,0,0,3,0,0],"split_type":[0,0,0,0,0,0,0,0,0],"sum_hessian":[6.7107916E0,2.1948824E0,4.515909E0,1.1429758E0,1.0519067E0,1.8015795E0,2.7143295E0,1.2179005E0,1.4964291E0],"tree_param":{"num_deleted":"0","num_feature":"10","num_nodes":"9","size_leaf_vector":"1"}},{"base_weights":[-4.055873E-3,-3.0495107E-2,9.520757E-2,3.1771835E-2,-4.5082867E-2,-2.9027248E-2,1.23596E-1,-1.8355025E-2,3.8420584E-2],"categories":[],"categories_nodes":[],"categories_segments":[],"categories_sizes":[],"default_left":[0,0,0,0,0,0,0,0,0],"id":62,"left_children":[1,-1,3,-1,5,-1,7,-1,-1],"loss_changes":[2.578686E-1,0E0,2.1795005E-1,0E0,2.3755817E-1,0E0,3.5791072E-1,0E0,0E0],"parents":[2147483647,0,0,2,2,4,4,6,6],"right_children":[2,-1,4,-1,6,-1,8,-1,-1],"split_conditions":[2E0,-3.0495107E-2,5.8E1,3.1771835E-2,1.5E1,-2.9027248E-2,7.1E1,-1.8355025E-2,3.8420584E-2],"split_indices":[3,0,2,0,5,0,2,0,0],"split_type":[0,0,0,0,0,0,0,0,0],"sum_hessian":[6.661569E0,1.1384552E0,5.523114E0,1.6466653E0,3.8764486E0,1.2861124E0,2.590336E0,1.3247356E0,1.2656006E0],"tree_param":{"num_deleted":"0","num_feature":"10","num_nodes":"9","size_leaf_vector":"1"}},{"base_weights":[-4.7122547E-3,-1.1880264E-1,2.482119E-2,6.1039504E-2,-4.350045E-2,3.366969E-2,-1.8129362E-1,-3.425654E-2,6.4561754E-3],"categories":[],"categories_nodes":[],"categories_segments":[],"categories_sizes":[],"default_left":[0,0,0,0,0,0,0,0,0],"id":63,"left_children":[1,3,-1,5,-1,-1,7,-1,-1],"loss_changes":[2.4831179E-1,3.621899E-1,0E0,3.7095004E-1,0E0,0E0,1.4577891E-1,0E0,0E0],"parents":[2147483647,0,0,1,1,3,3,6,6],"right_children":[2,4,-1,6,-1,-1,8,-1,-1],"split_conditions":[6E0,1.4E1,2.482119E-2,3.4E1,-4.350045E-2,3.366969E-2,4.6E1,-3.425654E-2,6.4561754E-3],"split_indices":[3,0,0,4,0,0,1,0,0],"split_type":[0,0,0,0,0,0,0,0,0],"sum_hessian":[6.5832396E0,4.9022083E0,1.6810311E0,3.6392934E0,1.2629149E0,1.5204093E0,2.1188843E0,1.0420064E0,1.0768778E0],"tree_param":{"num_deleted":"0","num_feature":"10","num_nodes":"9","size_leaf_vector":"1"}},{"base_weights":[-6.072587E-3,1.8300971E-1,-1.4600845E-1,-1.1743484E-2,3.521548E-2,-3.315184E-2,2.689067E-2,-2.897487E-2,3.0349268E-2],"categories":[],"categories_nodes":[],"categories_segments":[],"categories_sizes":[],"default_left":[0,0,0,0,0,0,0,0,0],"id":64,"left_children":[1,3,5,-1,-1,-1,7,-1,-1],"loss_changes":[2.2579223E-1,2.265224E-1,1.654374E-1,0E0,0E0,0E0,3.9016917E-1,0E0,0E0],"parents":[2147483647,0,0,1,1,2,2,6,6],"right_children":[2,4,6,-1,-1,-1,8,-1,-1],"split_conditions":[5.9E1,2.1E1,1.5E1,-1.1743484E-2,3.521548E-2,-3.315184E-2,7.1E1,-2.897487E-2,3.0349268E-2],"split_indices":[2,4,5,0,0,0,2,0,0],"split_type":[0,0,0,0,0,0,0,0,0],"sum_hessian":[6.523652E0,2.6436808E0,3.879971E0,1.0623654E0,1.5813155E0,1.4291612E0,2.4508097E0,1.1205426E0,1.3302672E0],"tree_param":{"num_deleted":"0","num_feature":"10","num_nodes":"9","size_leaf_vector":"1"}},{"base_weights":[-6.666382E-3,-1.1739483E-1,2.3774443E-2,5.2607227E-2,-4.1654825E-2,2.5716305E-1,-2.5549704E-2,4.167169E-2,-4.1016485E-3],"categories":[],"categories_nodes":[],"categories_segments":[],"categories_sizes":[],"default_left":[0,0,0,0,0,0,0,0,0],"id":65,"left_children":[1,3,-1,5,-1,7,-1,-1,-1],"loss_changes":[2.294269E-1,3.1657544E-1,0E0,3.5450464E-1,0E0,1.7182387E-1,0E0,0E0,0E0],"parents":[2147483647,0,0,1,1,3,3,5,5],"right_children":[2,4,-1,6,-1,8,-1,-1,-1],"split_conditions":[6E0,1.4E1,2.3774443E-2,4E1,-4.1654825E-2,1.0254E2,-2.5549704E-2,4.167169E-2,-4.1016485E-3],"split_indices":[3,0,0,4,0,6,0,0,0],"split_type":[0,0,0,0,0,0,0,0,0],"sum_hessian":[6.4461536E0,4.7939663E0,1.6521873E0,3.582347E0,1.2116194E0,2.252326E0,1.330021E0,1.2082583E0,1.0440676E0],"tree_param":{"num_deleted":"0","num_feature":"10","num_nodes":"9","size_leaf_vector":"1"}},{"base_weights":[-6.8991277E-3,-2.9142303E-2,8.74482E-2,3.2283146E-2,-4.0220115E-2,3.0553013E-2,-2.14099E-1,-4.7404274E-2,1.1298344E-2],"categories":[],"categories_nodes":[],"categories_segments":[],"categories_sizes":[],"default_left":[0,0,0,0,0,0,0,0,0],"id":66,"left_children":[1,-1,3,-1,5,-1,7,-1,-1],"loss_changes":[2.2362547E-1,0E0,2.0267493E-1,0E0,3.6491108E-1,0E0,3.8538194E-1,0E0,0E0],"parents":[2147483647,0,0,2,2,4,4,6,6],"right_children":[2,-1,4,-1,6,-1,8,-1,-1],"split_conditions":[2E0,-2.9142303E-2,3.5E1,3.2283146E-2,3E0,3.0553013E-2,3.8E1,-4.7404274E-2,1.1298344E-2],"split_indices":[3,0,1,0,3,0,4,0,0],"split_type":[0,0,0,0,0,0,0,0,0],"sum_hessian":[6.381184E0,1.0688908E0,5.3122935E0,1.3305229E0,3.9817705E0,1.0790284E0,2.9027421E0,1.3670185E0,1.5357236E0],"tree_param":{"num_deleted":"0","num_feature":"10","num_nodes":"9","size_leaf_vector":"1"}},{"base_weights":[-6.6851717E-3,-1.119081E-1,2.2402685E-2,4.870342E-2,-3.969332E-2,2.4939793E-1,-2.5088945E-2,4.0166833E-2,-3.787096E-3],"categories":[],"categories_nodes":[],"categories_segments":[],"categories_sizes":[],"default_left":[0,0,0,0,0,0,0,0,0],"id":67,"left_children":[1,3,-1,5,-1,7,-1,-1,-1],"loss_changes":[2.0275538E-1,2.799754E-1,0E0,3.3508238E-1,0E0,1.5587054E-1,0E0,0E0,0E0],"parents":[2147483647,0,0,1,1,3,3,5,5],"right_children":[2,4,-1,6,-1,8,-1,-1,-1],"split_conditions":[6E0,1.4E1,2.2402685E-2,4E1,-3.969332E-2,1.0254E2,-2.5088945E-2,4.0166833E-2,-3.787096E-3],"split_indices":[3,0,0,4,0,6,0,0,0],"split_type":[0,0,0,0,0,0,0,0,0],"sum_hessian":[6.3193088E0,4.6936E0,1.6257083E0,3.5322847E0,1.1613154E0,2.215611E0,1.3166738E0,1.1877818E0,1.0278293E0],"tree_param":{"num_deleted":"0","num_feature":"10","num_nodes":"9","size_leaf_vector":"1"}},{"base_weights":[-6.938721E-3,1.7372294E-1,-1.4018291E-1,-1.1326281E-2,3.336022E-2,-3.181814E-2,2.7969494E-2,-2.7506767E-2,2.906057E-2],"categories":[],"categories_nodes":[],"categories_segments":[],"categories_sizes":[],"default_left":[0,0,0,0,0,0,0,0,0],"id":68,"left_children":[1,3,5,-1,-1,-1,7,-1,-1],"loss_changes":[1.9908716E-1,1.9964752E-1,1.5050396E-1,0E0,0E0,0E0,3.4671795E-1,0E0,0E0],"parents":[2147483647,0,0,1,1,2,2,6,6],"right_children":[2,4,6,-1,-1,-1,8,-1,-1],"split_conditions":[5.9E1,2.1E1,1.5E1,-1.1326281E-2,3.336022E-2,-3.181814E-2,7.1E1,-2.7506767E-2,2.906057E-2],"split_indices":[2,4,5,0,0,0,2,0,0],"split_type":[0,0,0,0,0,0,0,0,0],"sum_hessian":[6.258779E0,2.5277236E0,3.7310553E0,1.0086873E0,1.5190364E0,1.379043E0,2.3520124E0,1.0700382E0,1.2819741E0],"tree_param":{"num_deleted":"0","num_feature":"10","num_nodes":"9","size_leaf_vector":"1"}},{"base_weights":[-7.477523E-3,-2.8103411E-2,8.342316E-2,2.0185927E-1,-1.5932368E-2,8.71718E-3,4.2900305E-2,2.9331625E-2,-2.8415432E-2],"categories":[],"categories_nodes":[],"categories_segments":[],"categories_sizes":[],"default_left":[0,0,0,0,0,0,0,0,0],"id":69,"left_children":[1,-1,3,5,-1,7,-1,-1,-1],"loss_changes":[2.0218529E-1,0E0,2.094427E-1,1.9742785E-1,0E0,3.7498707E-1,0E0,0E0,0E0],"parents":[2147483647,0,0,2,2,3,3,5,5],"right_children":[2,-1,4,6,-1,8,-1,-1,-1],"split_conditions":[2E0,-2.8103411E-2,7.5E1,5.3E1,-1.5932368E-2,3.5E1,4.2900305E-2,2.9331625E-2,-2.8415432E-2],"split_indices":[3,0,2,1,0,1,0,0,0],"split_type":[0,0,0,0,0,0,0,0,0],"sum_hessian":[6.18801E0,1.0216861E0,5.166324E0,3.5854306E0,1.5808933E0,2.4989402E0,1.0864905E0,1.2665989E0,1.2323413E0],"tree_param":{"num_deleted":"0","num_feature":"10","num_nodes":"9","size_leaf_vector":"1"}},{"base_weights":[-6.8228245E-3,-2.686928E-2,7.997336E-2,1.9227225E-1,-1.4978952E-2,8.161964E-3,4.0708933E-2,2.7839324E-2,-2.698923E-2],"categories":[],"categories_nodes":[],"categories_segments":[],"categories_sizes":[],"default_left":[0,0,0,0,0,0,0,0,0],"id":70,"left_children":[1,-1,3,5,-1,7,-1,-1,-1],"loss_changes":[1.8392138E-1,0E0,1.8717459E-1,1.7705786E-1,0E0,3.3634928E-1,0E0,0E0,0E0],"parents":[2147483647,0,0,2,2,3,3,5,5],"right_children":[2,-1,4,6,-1,8,-1,-1,-1],"split_conditions":[2E0,-2.686928E-2,7.5E1,5.3E1,-1.4978952E-2,3.5E1,4.0708933E-2,2.7839324E-2,-2.698923E-2],"split_indices":[3,0,2,1,0,1,0,0,0],"split_type":[0,0,0,0,0,0,0,0,0],"sum_hessian":[6.1464148E0,1.0083823E0,5.1380324E0,3.5608184E0,1.5772142E0,2.4764E0,1.0844185E0,1.2552484E0,1.2211515E0],"tree_param":{"num_deleted":"0","num_feature":"10","num_nodes":"9","size_leaf_vector":"1"}},{"base_weights":[-6.2347557E-3,-2.0327264E-2,1.08407006E-1,-1.1207829E-2,2.4316896E-1,5.1428445E-2,-9.845929E-3],"categories":[],"categories_nodes":[],"categories_segments":[],"categories_sizes":[],"default_left":[0,0,0,0,0,0,0],"id":71,"left_children":[1,-1,3,-1,5,-1,-1],"loss_changes":[1.8259539E-1,0E0,1.8014759E-1,0E0,3.756582E-1,0E0,0E0],"parents":[2147483647,0,0,2,2,4,4],"right_children":[2,-1,4,-1,6,-1,-1],"split_conditions":[1.5E1,-2.0327264E-2,3.9E1,-1.1207829E-2,3E0,5.1428445E-2,-9.845929E-3],"split_indices":[5,0,1,0,3,0,0],"split_type":[0,0,0,0,0,0,0],"sum_hessian":[6.1079216E0,1.9622456E0,4.145676E0,1.6365026E0,2.5091734E0,1.1171855E0,1.3919879E0],"tree_param":{"num_deleted":"0","num_feature":"10","num_nodes":"7","size_leaf_vector":"1"}},{"base_weights":[-4.1654394E-3,-1.0601519E-1,2.1473873E-2,4.8383836E-2,-3.829932E-2,2.5871116E-1,-2.6277626E-2,3.381115E-2,6.159793E-3],"categories":[],"categories_nodes":[],"categories_segments":[],"categories_sizes":[],"default_left":[0,0,0,0,0,0,0,0,0],"id":72,"left_children":[1,3,-1,5,-1,7,-1,-1,-1],"loss_changes":[1.8021572E-1,2.5327206E-1,0E0,3.567457E-1,0E0,2.826345E-2,0E0,0E0,0E0],"parents":[2147483647,0,0,1,1,3,3,5,5],"right_children":[2,4,-1,6,-1,8,-1,-1,-1],"split_conditions":[6E0,1.4E1,2.1473873E-2,4E1,-3.829932E-2,4.893E1,-2.6277626E-2,3.381115E-2,6.159793E-3],"split_indices":[3,0,0,4,0,6,0,0,0],"split_type":[0,0,0,0,0,0,0,0,0],"sum_hessian":[6.062022E0,4.489083E0,1.5729395E0,3.4122617E0,1.0768211E0,2.1365972E0,1.2756644E0,1.0131631E0,1.1234342E0],"tree_param":{"num_deleted":"0","num_feature":"10","num_nodes":"9","size_leaf_vector":"1"}},{"base_weights":[-4.28315E-3,1.639826E-1,-1.2871571E-1,-8.244286E-3,3.1969603E-2,-2.968902E-2,2.8188538E-2,-2.6146049E-2,2.7835716E-2],"categories":[],"categories_nodes":[],"categories_segments":[],"categories_sizes":[],"default_left":[0,0,0,0,0,0,0,0,0],"id":73,"left_children":[1,3,5,-1,-1,-1,7,-1,-1],"loss_changes":[1.6789506E-1,1.5759394E-1,1.2950063E-1,0E0,0E0,0E0,3.110408E-1,0E0,0E0],"parents":[2147483647,0,0,1,1,2,2,6,6],"right_children":[2,4,6,-1,-1,-1,8,-1,-1],"split_conditions":[5.9E1,3.2E1,1.5E1,-8.244286E-3,3.1969603E-2,-2.968902E-2,7.1E1,-2.6146049E-2,2.7835716E-2],"split_indices":[2,4,5,0,0,0,2,0,0],"split_type":[0,0,0,0,0,0,0,0,0],"sum_hessian":[6.0106874E0,2.4201546E0,3.5905325E0,1.1193174E0,1.3008372E0,1.302404E0,2.2881286E0,1.0394734E0,1.2486552E0],"tree_param":{"num_deleted":"0","num_feature":"10","num_nodes":"9","size_leaf_vector":"1"}},{"base_weights":[-4.5221797E-3,-1.0314777E-1,2.061686E-2,4.357873E-2,-3.668828E-2,2.4962772E-1,-2.5825327E-2,2.9827012E-2,8.113349E-3],"categories":[],"categories_nodes":[],"categories_segments":[],"categories_sizes":[],"default_left":[0,0,0,0,0,0,0,0,0],"id":74,"left_children":[1,3,-1,5,-1,7,-1,-1,-1],"loss_changes":[1.6562378E-1,2.248962E-1,0E0,3.3578598E-1,0E0,1.2173057E-3,0E0,0E0,0E0],"parents":[2147483647,0,0,1,1,3,3,5,5],"right_children":[2,4,-1,6,-1,8,-1,-1,-1],"split_conditions":[6E0,1.4E1,2.061686E-2,4E1,-3.668828E-2,4.3E1,-2.5825327E-2,2.9827012E-2,8.113349E-3],"split_indices":[3,0,0,4,0,1,0,0,0],"split_type":[0,0,0,0,0,0,0,0,0],"sum_hessian":[5.9471326E0,4.3985677E0,1.5485649E0,3.3625872E0,1.0359807E0,2.101163E0,1.2614242E0,1.0327966E0,1.0683663E0],"tree_param":{"num_deleted":"0","num_feature":"10","num_nodes":"9","size_leaf_vector":"1"}},{"base_weights":[-4.731149E-3,1.7041565E-1,-1.1506686E-1,4.0774345E-3,2.1536497E-2,-2.9407157E-2,3.4214523E-2,-2.0623036E-2,2.6790563E-2],"categories":[],"categories_nodes":[],"categories_segments":[],"categories_sizes":[],"default_left":[0,0,0,0,0,0,0,0,0],"id":75,"left_children":[1,3,5,-1,-1,-1,7,-1,-1],"loss_changes":[1.5297349E-1,9.110026E-3,1.3915244E-1,0E0,0E0,0E0,2.535953E-1,0E0,0E0],"parents":[2147483647,0,0,1,1,2,2,6,6],"right_children":[2,4,6,-1,-1,-1,8,-1,-1],"split_conditions":[5.8E1,4.795E1,1.5E1,4.0774345E-3,2.1536497E-2,-2.9407157E-2,7.1E1,-2.0623036E-2,2.6790563E-2],"split_indices":[2,6,5,0,0,0,2,0,0],"split_type":[0,0,0,0,0,0,0,0,0],"sum_hessian":[5.9011474E0,2.0702753E0,3.8308723E0,1.024002E0,1.0462734E0,1.3009621E0,2.52991E0,1.3048539E0,1.2250562E0],"tree_param":{"num_deleted":"0","num_feature":"10","num_nodes":"9","size_leaf_vector":"1"}},{"base_weights":[-3.982572E-3,-1.008126E-1,2.0149244E-2,3.7851606E-2,-3.498104E-2,2.9799977E-2,-1.8643124E-2],"categories":[],"categories_nodes":[],"categories_segments":[],"categories_sizes":[],"default_left":[0,0,0,0,0,0,0],"id":76,"left_children":[1,3,-1,5,-1,-1,-1],"loss_changes":[1.5669142E-1,1.9711466E-1,0E0,3.0778715E-1,0E0,0E0,0E0],"parents":[2147483647,0,0,1,1,3,3],"right_children":[2,4,-1,6,-1,-1,-1],"split_conditions":[6E0,1.4E1,2.0149244E-2,3.4E1,-3.498104E-2,2.9799977E-2,-1.8643124E-2],"split_indices":[3,0,0,4,0,0,0],"split_type":[0,0,0,0,0,0,0],"sum_hessian":[5.8545146E0,4.325495E0,1.52902E0,3.3229587E0,1.002536E0,1.3862977E0,1.9366609E0],"tree_param":{"num_deleted":"0","num_feature":"10","num_nodes":"7","size_leaf_vector":"1"}},{"base_weights":[-4.1856854E-3,9.301508E-2,-1.9712286E-2,-8.528835E-2,4.101659E-2,-2.675434E-1,2.4547221E-2,-4.7044758E-2,6.3893395E-3],"categories":[],"categories_nodes":[],"categories_segments":[],"categories_sizes":[],"default_left":[0,0,0,0,0,0,0,0,0],"id":77,"left_children":[1,3,-1,5,-1,7,-1,-1,-1],"loss_changes":[1.4614742E-1,3.2968736E-1,0E0,3.166826E-1,0E0,2.427751E-1,0E0,0E0,0E0],"parents":[2147483647,0,0,1,1,3,3,5,5],"right_children":[2,4,-1,6,-1,8,-1,-1,-1],"split_conditions":[7.5E1,5.4E1,-1.9712286E-2,2.5E1,4.101659E-2,4.795E1,2.4547221E-2,-4.7044758E-2,6.3893395E-3],"split_indices":[2,1,0,5,0,6,0,0,0],"split_type":[0,0,0,0,0,0,0,0,0],"sum_hessian":[5.8153186E0,4.2114906E0,1.603828E0,3.1638443E0,1.0476462E0,2.1630766E0,1.0007677E0,1.0815424E0,1.0815343E0],"tree_param":{"num_deleted":"0","num_feature":"10","num_nodes":"9","size_leaf_vector":"1"}},{"base_weights":[-3.0988674E-3,1.10381916E-1,-1.7553838E-1,-9.956381E-3,2.788837E-2,6.9061653E-3,-3.2738313E-2],"categories":[],"categories_nodes":[],"categories_segments":[],"categories_sizes":[],"default_left":[0,0,0,0,0,0,0],"id":78,"left_children":[1,3,5,-1,-1,-1,-1],"loss_changes":[1.5196036E-1,1.9404152E-1,1.3682541E-1,0E0,0E0,0E0,0E0],"parents":[2147483647,0,0,1,1,2,2],"right_children":[2,4,6,-1,-1,-1,-1],"split_conditions":[1.0344E2,4.195E1,4.4E1,-9.956381E-3,2.788837E-2,6.9061653E-3,-3.2738313E-2],"split_indices":[6,6,1,0,0,0,0],"split_type":[0,0,0,0,0,0,0],"sum_hessian":[5.775359E0,3.700184E0,2.0751753E0,1.8296475E0,1.8705366E0,1.0036393E0,1.0715358E0],"tree_param":{"num_deleted":"0","num_feature":"10","num_nodes":"7","size_leaf_vector":"1"}},{"base_weights":[-3.9989483E-3,-9.9053465E-2,1.970686E-2,4.3293077E-2,-2.909101E-2,-1.6204951E-2,1.9793475E-2],"categories":[],"categories_nodes":[],"categories_segments":[],"categories_sizes":[],"default_left":[0,0,0,0,0,0,0],"id":79,"left_children":[1,3,-1,5,-1,-1,-1],"loss_changes":[1.4841807E-1,1.5583129E-1,0E0,1.5532614E-1,0E0,0E0,0E0],"parents":[2147483647,0,0,1,1,3,3],"right_children":[2,4,-1,6,-1,-1,-1],"split_conditions":[6E0,4E1,1.970686E-2,2.2E1,-2.909101E-2,-1.6204951E-2,1.9793475E-2],"split_indices":[3,4,0,4,0,0,0],"split_type":[0,0,0,0,0,0,0],"sum_hessian":[5.7442026E0,4.244827E0,1.4993759E0,2.881366E0,1.3634605E0,1.217196E0,1.66417E0],"tree_param":{"num_deleted":"0","num_feature":"10","num_nodes":"7","size_leaf_vector":"1"}},{"base_weights":[-4.50696E-3,1.0268126E-1,-1.6716441E-2,-5.904317E-2,3.1879295E-2,1.867985E-2,-3.1126529E-2],"categories":[],"categories_nodes":[],"categories_segments":[],"categories_sizes":[],"default_left":[0,0,0,0,0,0,0],"id":80,"left_children":[1,3,-1,5,-1,-1,-1],"loss_changes":[1.3423076E-1,1.8193015E-1,0E0,2.7597463E-1,0E0,0E0,0E0],"parents":[2147483647,0,0,1,1,3,3],"right_children":[2,4,-1,6,-1,-1,-1],"split_conditions":[1.0344E2,5.6E1,-1.6716441E-2,5.9E1,3.1879295E-2,1.867985E-2,-3.1126529E-2],"split_indices":[6,1,0,2,0,0,0],"split_type":[0,0,0,0,0,0,0],"sum_hessian":[5.7144465E0,3.6668124E0,2.047634E0,2.5130193E0,1.153793E0,1.4039621E0,1.1090573E0],"tree_param":{"num_deleted":"0","num_feature":"10","num_nodes":"7","size_leaf_vector":"1"}},{"base_weights":[-3.6968421E-3,-1.7996259E-2,9.841702E-2,-1.0806999E-2,2.2579353E-1,4.8520826E-2,-1.002675E-2],"categories":[],"categories_nodes":[],"categories_segments":[],"categories_sizes":[],"default_left":[0,0,0,0,0,0,0],"id":81,"left_children":[1,-1,3,-1,5,-1,-1],"loss_changes":[1.3814615E-1,0E0,1.5283705E-1,0E0,3.314889E-1,0E0,0E0],"parents":[2147483647,0,0,2,2,4,4],"right_children":[2,-1,4,-1,6,-1,-1],"split_conditions":[1.5E1,-1.7996259E-2,3.9E1,-1.0806999E-2,3E0,4.8520826E-2,-1.002675E-2],"split_indices":[5,0,1,0,3,0,0],"split_type":[0,0,0,0,0,0,0],"sum_hessian":[5.691127E0,1.807942E0,3.8831847E0,1.5393506E0,2.343834E0,1.0334941E0,1.3103398E0],"tree_param":{"num_deleted":"0","num_feature":"10","num_nodes":"7","size_leaf_vector":"1"}},{"base_weights":[-1.8303988E-3,-9.5341444E-2,1.9139117E-2,3.9719187E-2,-3.2053873E-2,2.9111803E-2,-1.8443784E-2],"categories":[],"categories_nodes":[],"categories_segments":[],"categories_sizes":[],"default_left":[0,0,0,0,0,0,0],"id":82,"left_children":[1,3,-1,5,-1,-1,-1],"loss_changes":[1.3843344E-1,1.6936786E-1,0E0,2.852449E-1,0E0,0E0,0E0],"parents":[2147483647,0,0,1,1,3,3],"right_children":[2,4,-1,6,-1,-1,-1],"split_conditions":[6E0,1.3E1,1.9139117E-2,3.4E1,-3.2053873E-2,2.9111803E-2,-1.8443784E-2],"split_indices":[3,0,0,4,0,0,0],"split_type":[0,0,0,0,0,0,0],"sum_hessian":[5.6517377E0,4.1499214E0,1.5018164E0,3.1089647E0,1.0409566E0,1.3246293E0,1.7843353E0],"tree_param":{"num_deleted":"0","num_feature":"10","num_nodes":"7","size_leaf_vector":"1"}},{"base_weights":[-2.0264403E-3,-1.7343089E-2,9.711603E-2,-1.0372779E-2,2.2113308E-1,4.7009263E-2,-9.246296E-3],"categories":[],"categories_nodes":[],"categories_segments":[],"categories_sizes":[],"default_left":[0,0,0,0,0,0,0],"id":83,"left_children":[1,-1,3,-1,5,-1,-1],"loss_changes":[1.292722E-1,0E0,1.4330861E-1,0E0,3.0165577E-1,0E0,0E0],"parents":[2147483647,0,0,2,2,4,4],"right_children":[2,-1,4,-1,6,-1,-1],"split_conditions":[1.5E1,-1.7343089E-2,3.9E1,-1.0372779E-2,3E0,4.7009263E-2,-9.246296E-3],"split_indices":[5,0,1,0,3,0,0],"split_type":[0,0,0,0,0,0,0],"sum_hessian":[5.616031E0,1.7834201E0,3.832611E0,1.5255711E0,2.30704E0,1.0078685E0,1.2991716E0],"tree_param":{"num_deleted":"0","num_feature":"10","num_nodes":"7","size_leaf_vector":"1"}},{"base_weights":[-2.512845E-4,-9.294711E-2,1.8817274E-2,3.8029935E-2,-3.1160062E-2,2.7605573E-2,-1.7396905E-2],"categories":[],"categories_nodes":[],"categories_segments":[],"categories_sizes":[],"default_left":[0,0,0,0,0,0,0],"id":84,"left_children":[1,3,-1,5,-1,-1,-1],"loss_changes":[1.3239813E-1,1.5730447E-1,0E0,2.532778E-1,0E0,0E0,0E0],"parents":[2147483647,0,0,1,1,3,3],"right_children":[2,4,-1,6,-1,-1,-1],"split_conditions":[6E0,1.3E1,1.8817274E-2,3.4E1,-3.1160062E-2,2.7605573E-2,-1.7396905E-2],"split_indices":[3,0,0,4,0,0,0],"split_type":[0,0,0,0,0,0,0],"sum_hessian":[5.578908E0,4.078962E0,1.499946E0,3.067532E0,1.0114299E0,1.3027215E0,1.7648106E0],"tree_param":{"num_deleted":"0","num_feature":"10","num_nodes":"7","size_leaf_vector":"1"}},{"base_weights":[-5.821183E-4,9.2675045E-2,-1.8385133E-2,-8.082989E-2,3.921743E-2,1.2138108E-2,-2.9821405E-2],"categories":[],"categories_nodes":[],"categories_segments":[],"categories_sizes":[],"default_left":[0,0,0,0,0,0,0],"id":85,"left_children":[1,3,-1,5,-1,-1,-1],"loss_changes":[1.2891603E-1,2.916891E-1,0E0,2.1189861E-1,0E0,0E0,0E0],"parents":[2147483647,0,0,1,1,3,3],"right_children":[2,4,-1,6,-1,-1,-1],"split_conditions":[7.5E1,5.4E1,-1.8385133E-2,3.4E1,3.921743E-2,1.2138108E-2,-2.9821405E-2],"split_indices":[2,1,0,4,0,0,0],"split_type":[0,0,0,0,0,0,0],"sum_hessian":[5.5459313E0,4.003208E0,1.5427233E0,2.9970713E0,1.006137E0,1.7815242E0,1.215547E0],"tree_param":{"num_deleted":"0","num_feature":"10","num_nodes":"7","size_leaf_vector":"1"}},{"base_weights":[-6.542617E-5,-1.9019384E-2,9.2108846E-2,3.0052701E-2,-6.286767E-2,1.6051073E-2,-2.1895386E-2],"categories":[],"categories_nodes":[],"categories_segments":[],"categories_sizes":[],"default_left":[0,0,0,0,0,0,0],"id":86,"left_children":[1,-1,3,-1,5,-1,-1],"loss_changes":[1.318789E-1,0E0,1.8261017E-1,0E0,1.6533594E-1,0E0,0E0],"parents":[2147483647,0,0,2,2,4,4],"right_children":[2,-1,4,-1,6,-1,-1],"split_conditions":[2.1E1,-1.9019384E-2,5.9E1,3.0052701E-2,4.37E1,1.6051073E-2,-2.1895386E-2],"split_indices":[4,0,2,0,6,0,0],"split_type":[0,0,0,0,0,0,0],"sum_hessian":[5.5255756E0,1.4569339E0,4.0686417E0,1.334619E0,2.7340229E0,1.112933E0,1.6210898E0],"tree_param":{"num_deleted":"0","num_feature":"10","num_nodes":"7","size_leaf_vector":"1"}},{"base_weights":[7.448719E-4,-1.702857E-2,9.935555E-2,-1.02335075E-2,2.2419314E-1,-7.168056E-5,3.3045374E-2],"categories":[],"categories_nodes":[],"categories_segments":[],"categories_sizes":[],"default_left":[0,0,0,0,0,0,0],"id":87,"left_children":[1,-1,3,-1,5,-1,-1],"loss_changes":[1.2642184E-1,0E0,1.4253616E-1,0E0,7.784368E-2,0E0,0E0],"parents":[2147483647,0,0,2,2,4,4],"right_children":[2,-1,4,-1,6,-1,-1],"split_conditions":[1.5E1,-1.702857E-2,3.9E1,-1.02335075E-2,9E0,-7.168056E-5,3.3045374E-2],"split_indices":[5,0,1,0,0,0,0],"split_type":[0,0,0,0,0,0,0],"sum_hessian":[5.492746E0,1.7429395E0,3.7498064E0,1.5025327E0,2.2472737E0,1.0397677E0,1.2075061E0],"tree_param":{"num_deleted":"0","num_feature":"10","num_nodes":"7","size_leaf_vector":"1"}},{"base_weights":[1.574243E-3,1.0339709E-1,-1.5344858E-2,-1.0441717E-2,2.7279887E-2],"categories":[],"categories_nodes":[],"categories_segments":[],"categories_sizes":[],"default_left":[0,0,0,0,0],"id":88,"left_children":[1,3,-1,-1,-1],"loss_changes":[1.1789931E-1,1.8686342E-1,0E0,0E0,0E0],"parents":[2147483647,0,0,1,1],"right_children":[2,4,-1,-1,-1],"split_conditions":[1.0344E2,4.195E1,-1.5344858E-2,-1.0441717E-2,2.7279887E-2],"split_indices":[6,6,0,0,0],"split_type":[0,0,0,0,0],"sum_hessian":[5.4639883E0,3.4988658E0,1.9651222E0,1.7435597E0,1.7553061E0],"tree_param":{"num_deleted":"0","num_feature":"10","num_nodes":"5","size_leaf_vector":"1"}},{"base_weights":[1.6609184E-3,-8.8739306E-2,1.8257653E-2,-2.7441261E-2,3.382444E-2,-2.4133079E-2,2.1433312E-2],"categories":[],"categories_nodes":[],"categories_segments":[],"categories_sizes":[],"default_left":[0,0,0,0,0,0,0],"id":89,"left_children":[1,3,-1,-1,5,-1,-1],"loss_changes":[1.2161773E-1,1.2240337E-1,0E0,0E0,2.4466443E-1,0E0,0E0],"parents":[2147483647,0,0,1,1,4,4],"right_children":[2,4,-1,-1,6,-1,-1],"split_conditions":[6E0,1.7E1,1.8257653E-2,-2.7441261E-2,3.9E1,-2.4133079E-2,2.1433312E-2],"split_indices":[3,5,0,0,1,0,0],"split_type":[0,0,0,0,0,0,0],"sum_hessian":[5.445565E0,3.9708853E0,1.47468E0,1.0862995E0,2.8845859E0,1.0092322E0,1.8753537E0],"tree_param":{"num_deleted":"0","num_feature":"10","num_nodes":"7","size_leaf_vector":"1"}},{"base_weights":[-3.8463625E-4,1.5956689E-2,-1.0344297E-1,1.1154996E-2,-2.0584562E-1,-3.8941134E-2,6.922038E-3],"categories":[],"categories_nodes":[],"categories_segments":[],"categories_sizes":[],"default_left":[0,0,0,0,0,0,0],"id":90,"left_children":[1,-1,3,-1,5,-1,-1],"loss_changes":[1.22231275E-1,0E0,1.2219241E-1,0E0,1.9885722E-1,0E0,0E0],"parents":[2147483647,0,0,2,2,4,4],"right_children":[2,-1,4,-1,6,-1,-1],"split_conditions":[5.8E1,1.5956689E-2,4.4E1,1.1154996E-2,4.1E1,-3.8941134E-2,6.922038E-3],"split_indices":[2,0,1,0,4,0,0],"split_type":[0,0,0,0,0,0,0],"sum_hessian":[5.413677E0,1.9064534E0,3.5072238E0,1.1027304E0,2.4044936E0,1.1927853E0,1.2117083E0],"tree_param":{"num_deleted":"0","num_feature":"10","num_nodes":"7","size_leaf_vector":"1"}},{"base_weights":[-1.1807628E-3,-8.824717E-2,1.7386004E-2,3.941941E-2,-2.5555199E-2,1.826646E-2,-1.621917E-2],"categories":[],"categories_nodes":[],"categories_segments":[],"categories_sizes":[],"default_left":[0,0,0,0,0,0,0],"id":91,"left_children":[1,3,-1,5,-1,-1,-1],"loss_changes":[1.12671904E-1,1.15337655E-1,0E0,1.3537373E-1,0E0,0E0,0E0],"parents":[2147483647,0,0,1,1,3,3],"right_children":[2,4,-1,6,-1,-1,-1],"split_conditions":[6E0,4E1,1.7386004E-2,1.2E1,-2.5555199E-2,1.826646E-2,-1.621917E-2],"split_indices":[3,4,0,0,0,0,0],"split_type":[0,0,0,0,0,0,0],"sum_hessian":[5.38636E0,3.9282644E0,1.4580958E0,2.661624E0,1.2666403E0,1.6109884E0,1.0506356E0],"tree_param":{"num_deleted":"0","num_feature":"10","num_nodes":"7","size_leaf_vector":"1"}},{"base_weights":[-2.0494072E-3,-1.7699478E-2,8.3498456E-2,2.8186506E-2,-6.1845418E-2,1.4960504E-2,-2.0820739E-2],"categories":[],"categories_nodes":[],"categories_segments":[],"categories_sizes":[],"default_left":[0,0,0,0,0,0,0],"id":92,"left_children":[1,-1,3,-1,5,-1,-1],"loss_changes":[1.1002287E-1,0E0,1.6024649E-1,0E0,1.4500327E-1,0E0,0E0],"parents":[2147483647,0,0,2,2,4,4],"right_children":[2,-1,4,-1,6,-1,-1],"split_conditions":[2.1E1,-1.7699478E-2,5.9E1,2.8186506E-2,4.37E1,1.4960504E-2,-2.0820739E-2],"split_indices":[4,0,2,0,6,0,0],"split_type":[0,0,0,0,0,0,0],"sum_hessian":[5.3639436E0,1.4105048E0,3.9534388E0,1.2745812E0,2.6788576E0,1.086714E0,1.5921435E0],"tree_param":{"num_deleted":"0","num_feature":"10","num_nodes":"7","size_leaf_vector":"1"}},{"base_weights":[-1.1183149E-3,7.378695E-2,-1.9062156E-2,-9.126922E-2,3.8153432E-2,1.7624512E-2,-2.4325758E-1,-1.8014096E-3,-3.5364095E-2],"categories":[],"categories_nodes":[],"categories_segments":[],"categories_sizes":[],"default_left":[0,0,0,0,0,0,0,0,0],"id":93,"left_children":[1,3,-1,5,-1,-1,7,-1,-1],"loss_changes":[1.0398566E-1,3.020622E-1,0E0,2.1491756E-1,0E0,0E0,7.1164295E-2,0E0,0E0],"parents":[2147483647,0,0,1,1,3,3,6,6],"right_children":[2,4,-1,6,-1,-1,8,-1,-1],"split_conditions":[7.8E1,5.4E1,-1.9062156E-2,3.2E1,3.8153432E-2,1.7624512E-2,1E1,-1.8014096E-3,-3.5364095E-2],"split_indices":[2,1,0,1,0,0,0,0,0],"split_type":[0,0,0,0,0,0,0,0,0],"sum_hessian":[5.3347387E0,4.261083E0,1.0736558E0,3.2313955E0,1.0296874E0,1.1129315E0,2.118464E0,1.0792958E0,1.0391681E0],"tree_param":{"num_deleted":"0","num_feature":"10","num_nodes":"9","size_leaf_vector":"1"}},{"base_weights":[-1.1229337E-3,-1.55767845E-2,8.774862E-2,-1.0030256E-2,2.0565209E-1,-1.5044519E-3,3.173643E-2],"categories":[],"categories_nodes":[],"categories_segments":[],"categories_sizes":[],"default_left":[0,0,0,0,0,0,0],"id":94,"left_children":[1,-1,3,-1,5,-1,-1],"loss_changes":[1.0030667E-1,0E0,1.23570696E-1,0E0,8.3214745E-2,0E0,0E0],"parents":[2147483647,0,0,2,2,4,4],"right_children":[2,-1,4,-1,6,-1,-1],"split_conditions":[1.5E1,-1.55767845E-2,3.9E1,-1.0030256E-2,9E0,-1.5044519E-3,3.173643E-2],"split_indices":[5,0,1,0,0,0,0],"split_type":[0,0,0,0,0,0,0],"sum_hessian":[5.303928E0,1.6609638E0,3.6429644E0,1.4613899E0,2.1815743E0,1.0239685E0,1.1576059E0],"tree_param":{"num_deleted":"0","num_feature":"10","num_nodes":"7","size_leaf_vector":"1"}},{"base_weights":[-2.5975384E-4,-8.3949596E-2,1.667016E-2,-2.2192022E-2,6.86066E-2,2.7172832E-2,-1.6316893E-2],"categories":[],"categories_nodes":[],"categories_segments":[],"categories_sizes":[],"default_left":[0,0,0,0,0,0,0],"id":95,"left_children":[1,3,-1,-1,5,-1,-1],"loss_changes":[1.0171972E-1,1.17247246E-1,0E0,0E0,1.8866707E-1,0E0,0E0],"parents":[2147483647,0,0,1,1,4,4],"right_children":[2,4,-1,-1,6,-1,-1],"split_conditions":[6E0,4.717E1,1.667016E-2,-2.2192022E-2,1.6129E2,2.7172832E-2,-1.6316893E-2],"split_indices":[3,6,0,0,6,0,0],"split_type":[0,0,0,0,0,0,0],"sum_hessian":[5.2782063E0,3.8470523E0,1.4311541E0,1.7813421E0,2.06571E0,1.0090389E0,1.0566711E0],"tree_param":{"num_deleted":"0","num_feature":"10","num_nodes":"7","size_leaf_vector":"1"}},{"base_weights":[6.058825E-4,1.4706299E-2,-9.403292E-2,1.089773E-2,-1.9260576E-1,-3.6629748E-2,6.715928E-3],"categories":[],"categories_nodes":[],"categories_segments":[],"categories_sizes":[],"default_left":[0,0,0,0,0,0,0],"id":96,"left_children":[1,-1,3,-1,5,-1,-1],"loss_changes":[1.0064378E-1,0E0,1.0933578E-1,0E0,1.7498991E-1,0E0,0E0],"parents":[2147483647,0,0,2,2,4,4],"right_children":[2,-1,4,-1,6,-1,-1],"split_conditions":[5.8E1,1.4706299E-2,4.4E1,1.089773E-2,4.1E1,-3.6629748E-2,6.715928E-3],"split_indices":[2,0,1,0,4,0,0],"split_type":[0,0,0,0,0,0,0],"sum_hessian":[5.263473E0,1.848661E0,3.4148118E0,1.0816367E0,2.3331752E0,1.152468E0,1.1807073E0],"tree_param":{"num_deleted":"0","num_feature":"10","num_nodes":"7","size_leaf_vector":"1"}},{"base_weights":[-1.9838959E-4,-1.5000443E-2,8.5413665E-2,-9.958219E-3,2.0275909E-1,-1.2894174E-3,3.1058887E-2],"categories":[],"categories_nodes":[],"categories_segments":[],"categories_sizes":[],"default_left":[0,0,0,0,0,0,0],"id":97,"left_children":[1,-1,3,-1,5,-1,-1],"loss_changes":[9.2832975E-2,0E0,1.2021303E-1,0E0,7.722196E-2,0E0,0E0],"parents":[2147483647,0,0,2,2,4,4],"right_children":[2,-1,4,-1,6,-1,-1],"split_conditions":[1.5E1,-1.5000443E-2,3.9E1,-9.958219E-3,9E0,-1.2894174E-3,3.1058887E-2],"split_indices":[5,0,1,0,0,0,0],"split_type":[0,0,0,0,0,0,0],"sum_hessian":[5.2393203E0,1.6318058E0,3.6075146E0,1.4589095E0,2.148605E0,1.009695E0,1.1389099E0],"tree_param":{"num_deleted":"0","num_feature":"10","num_nodes":"7","size_leaf_vector":"1"}},{"base_weights":[6.1309576E-4,-8.0715835E-2,1.6201196E-2,4.6475995E-2,-2.472348E-2,1.8504921E-2,-1.5384557E-2],"categories":[],"categories_nodes":[],"categories_segments":[],"categories_sizes":[],"default_left":[0,0,0,0,0,0,0],"id":98,"left_children":[1,3,-1,5,-1,-1,-1],"loss_changes":[9.465453E-2,1.13151684E-1,0E0,1.2737674E-1,0E0,0E0,0E0],"parents":[2147483647,0,0,1,1,3,3],"right_children":[2,4,-1,6,-1,-1,-1],"split_conditions":[6E0,4E1,1.6201196E-2,1.2E1,-2.472348E-2,1.8504921E-2,-1.5384557E-2],"split_indices":[3,4,0,0,0,0,0],"split_type":[0,0,0,0,0,0,0],"sum_hessian":[5.2147746E0,3.7999015E0,1.4148731E0,2.5630608E0,1.2368407E0,1.5600969E0,1.0029638E0],"tree_param":{"num_deleted":"0","num_feature":"10","num_nodes":"7","size_leaf_vector":"1"}},{"base_weights":[-3.3670742E-4,-1.647501E-2,7.9707295E-2,2.6123991E-2,-5.4310553E-2,1.3925999E-2,-1.8967414E-2],"categories":[],"categories_nodes":[],"categories_segments":[],"categories_sizes":[],"default_left":[0,0,0,0,0,0,0],"id":99,"left_children":[1,-1,3,-1,5,-1,-1],"loss_changes":[9.4641E-2,0E0,1.3192676E-1,0E0,1.2105722E-1,0E0,0E0],"parents":[2147483647,0,0,2,2,4,4],"right_children":[2,-1,4,-1,6,-1,-1],"split_conditions":[2.1E1,-1.647501E-2,5.9E1,2.6123991E-2,4.37E1,1.3925999E-2,-1.8967414E-2],"split_indices":[4,0,2,0,6,0,0],"split_type":[0,0,0,0,0,0,0],"sum_hessian":[5.1935654E0,1.3540504E0,3.839515E0,1.2275102E0,2.6120048E0,1.0630515E0,1.5489533E0],"tree_param":{"num_deleted":"0","num_feature":"10","num_nodes":"7","size_leaf_vector":"1"}}]},"name":"gbtree"},"learner_model_param":{"base_score":"[4E-1]","boost_from_average":"1","num_class":"0","num_feature":"10","num_target":"1"},"objective":{"name":"binary:logistic","reg_loss_param":{"scale_pos_weight":"1"}}},"version":[3,2,0]}